digraph Tree {
node [shape=box, style="filled", color="black", fontname="helvetica"] ;
edge [fontname="helvetica"] ;
0 [label="Glucose <= 129.5\ngini = 0.449\nsamples = 537\nvalue = [354, 183]\nclass = X", fillcolor="#f2c29f"] ;
1 [label="BMI <= 26.3\ngini = 0.329\nsamples = 357\nvalue = [283, 74]\nclass = X", fillcolor="#eca26d"] ;
0 -> 1 [labeldistance=2.5, labelangle=45, headlabel="True"] ;
2 [label="BMI <= 9.1\ngini = 0.06\nsamples = 97\nvalue = [94, 3]\nclass = X", fillcolor="#e6853f"] ;
1 -> 2 ;
3 [label="Age <= 28.0\ngini = 0.444\nsamples = 6\nvalue = [4, 2]\nclass = X", fillcolor="#f2c09c"] ;
2 -> 3 ;
4 [label="(...)", fillcolor="#C0C0C0"] ;
3 -> 4 ;
5 [label="(...)", fillcolor="#C0C0C0"] ;
3 -> 5 ;
6 [label="DiabetesPedigreeFunction <= 0.669\ngini = 0.022\nsamples = 91\nvalue = [90, 1]\nclass = X", fillcolor="#e5823b"] ;
2 -> 6 ;
7 [label="(...)", fillcolor="#C0C0C0"] ;
6 -> 7 ;
8 [label="(...)", fillcolor="#C0C0C0"] ;
6 -> 8 ;
11 [label="Age <= 27.5\ngini = 0.397\nsamples = 260\nvalue = [189, 71]\nclass = X", fillcolor="#efb083"] ;
1 -> 11 ;
12 [label="BMI <= 45.4\ngini = 0.243\nsamples = 120\nvalue = [103, 17]\nclass = X", fillcolor="#e9965a"] ;
11 -> 12 ;
13 [label="(...)", fillcolor="#C0C0C0"] ;
12 -> 13 ;
48 [label="(...)", fillcolor="#C0C0C0"] ;
12 -> 48 ;
51 [label="DiabetesPedigreeFunction <= 0.563\ngini = 0.474\nsamples = 140\nvalue = [86, 54]\nclass = X", fillcolor="#f5d0b5"] ;
11 -> 51 ;
52 [label="(...)", fillcolor="#C0C0C0"] ;
51 -> 52 ;
89 [label="(...)", fillcolor="#C0C0C0"] ;
51 -> 89 ;
104 [label="BMI <= 27.85\ngini = 0.478\nsamples = 180\nvalue = [71, 109]\nclass = O", fillcolor="#baddf6"] ;
0 -> 104 [labeldistance=2.5, labelangle=-45, headlabel="False"] ;
105 [label="Glucose <= 145.5\ngini = 0.375\nsamples = 36\nvalue = [27, 9]\nclass = X", fillcolor="#eeab7b"] ;
104 -> 105 ;
106 [label="Age <= 59.5\ngini = 0.1\nsamples = 19\nvalue = [18, 1]\nclass = X", fillcolor="#e68844"] ;
105 -> 106 ;
107 [label="(...)", fillcolor="#C0C0C0"] ;
106 -> 107 ;
108 [label="(...)", fillcolor="#C0C0C0"] ;
106 -> 108 ;
111 [label="Pregnancies <= 1.5\ngini = 0.498\nsamples = 17\nvalue = [9, 8]\nclass = X", fillcolor="#fcf1e9"] ;
105 -> 111 ;
112 [label="(...)", fillcolor="#C0C0C0"] ;
111 -> 112 ;
113 [label="(...)", fillcolor="#C0C0C0"] ;
111 -> 113 ;
122 [label="Glucose <= 158.5\ngini = 0.424\nsamples = 144\nvalue = [44, 100]\nclass = O", fillcolor="#90c8f0"] ;
104 -> 122 ;
123 [label="Age <= 30.5\ngini = 0.487\nsamples = 88\nvalue = [37, 51]\nclass = O", fillcolor="#c9e4f8"] ;
122 -> 123 ;
124 [label="(...)", fillcolor="#C0C0C0"] ;
123 -> 124 ;
149 [label="(...)", fillcolor="#C0C0C0"] ;
123 -> 149 ;
174 [label="DiabetesPedigreeFunction <= 1.157\ngini = 0.219\nsamples = 56\nvalue = [7, 49]\nclass = O", fillcolor="#55abe9"] ;
122 -> 174 ;
175 [label="(...)", fillcolor="#C0C0C0"] ;
174 -> 175 ;
190 [label="(...)", fillcolor="#C0C0C0"] ;
174 -> 190 ;
}