digraph Tree {
node [shape=box, fontname="helvetica"] ;
edge [fontname="helvetica"] ;
0 [label="HOUSE <= 601744.5\ngini = 0.5\nsamples = 14000\nvalue = [6917, 7083]"] ;
1 [label="OVERAGE <= 98.5\ngini = 0.486\nsamples = 9279\nvalue = [5423, 3856]"] ;
0 -> 1 [labeldistance=2.5, labelangle=45, headlabel="True"] ;
2 [label="LEFTOVER <= 24.5\ngini = 0.499\nsamples = 6164\nvalue = [2944, 3220]"] ;
1 -> 2 ;
3 [label="LEFTOVER <= 2.5\ngini = 0.485\nsamples = 4129\nvalue = [1711, 2418]"] ;
2 -> 3 ;
4 [label="INCOME <= 60953.5\ngini = 0.499\nsamples = 2077\nvalue = [1085, 992]"] ;
3 -> 4 ;
5 [label="HOUSE <= 156489.0\ngini = 0.491\nsamples = 852\nvalue = [482, 370]"] ;
4 -> 5 ;
6 [label="INCOME <= 35452.5\ngini = 0.351\nsamples = 22\nvalue = [5, 17]"] ;
5 -> 6 ;
7 [label="gini = 0.0\nsamples = 13\nvalue = [0, 13]"] ;
6 -> 7 ;
8 [label="HANDSET_PRICE <= 218.0\ngini = 0.494\nsamples = 9\nvalue = [5, 4]"] ;
6 -> 8 ;
9 [label="CONSIDERING_CHANGE_OF_PLAN_never_thought <= 0.5\ngini = 0.375\nsamples = 4\nvalue = [1, 3]"] ;
8 -> 9 ;
10 [label="gini = 0.0\nsamples = 3\nvalue = [0, 3]"] ;
9 -> 10 ;
11 [label="gini = 0.0\nsamples = 1\nvalue = [1, 0]"] ;
9 -> 11 ;
12 [label="INCOME <= 56361.5\ngini = 0.32\nsamples = 5\nvalue = [4, 1]"] ;
8 -> 12 ;
13 [label="gini = 0.0\nsamples = 3\nvalue = [3, 0]"] ;
12 -> 13 ;
14 [label="CONSIDERING_CHANGE_OF_PLAN_never_thought <= 0.5\ngini = 0.5\nsamples = 2\nvalue = [1, 1]"] ;
12 -> 14 ;
15 [label="gini = 0.0\nsamples = 1\nvalue = [1, 0]"] ;
14 -> 15 ;
16 [label="gini = 0.0\nsamples = 1\nvalue = [0, 1]"] ;
14 -> 16 ;
17 [label="COLLEGE <= 0.5\ngini = 0.489\nsamples = 830\nvalue = [477, 353]"] ;
5 -> 17 ;
18 [label="HOUSE <= 183256.5\ngini = 0.498\nsamples = 422\nvalue = [224, 198]"] ;
17 -> 18 ;
19 [label="HANDSET_PRICE <= 235.0\ngini = 0.351\nsamples = 44\nvalue = [34, 10]"] ;
18 -> 19 ;
20 [label="OVER_15MINS_CALLS_PER_MONTH <= 3.5\ngini = 0.466\nsamples = 27\nvalue = [17, 10]"] ;
19 -> 20 ;
21 [label="HOUSE <= 159444.5\ngini = 0.291\nsamples = 17\nvalue = [14, 3]"] ;
20 -> 21 ;
22 [label="HOUSE <= 157103.5\ngini = 0.48\nsamples = 5\nvalue = [2, 3]"] ;
21 -> 22 ;
23 [label="gini = 0.0\nsamples = 2\nvalue = [2, 0]"] ;
22 -> 23 ;
24 [label="gini = 0.0\nsamples = 3\nvalue = [0, 3]"] ;
22 -> 24 ;
25 [label="gini = 0.0\nsamples = 12\nvalue = [12, 0]"] ;
21 -> 25 ;
26 [label="INCOME <= 38991.0\ngini = 0.42\nsamples = 10\nvalue = [3, 7]"] ;
20 -> 26 ;
27 [label="gini = 0.0\nsamples = 6\nvalue = [0, 6]"] ;
26 -> 27 ;
28 [label="HANDSET_PRICE <= 197.5\ngini = 0.375\nsamples = 4\nvalue = [3, 1]"] ;
26 -> 28 ;
29 [label="gini = 0.0\nsamples = 1\nvalue = [0, 1]"] ;
28 -> 29 ;
30 [label="gini = 0.0\nsamples = 3\nvalue = [3, 0]"] ;
28 -> 30 ;
31 [label="gini = 0.0\nsamples = 17\nvalue = [17, 0]"] ;
19 -> 31 ;
32 [label="OVER_15MINS_CALLS_PER_MONTH <= 4.5\ngini = 0.5\nsamples = 378\nvalue = [190, 188]"] ;
18 -> 32 ;
33 [label="HOUSE <= 234153.0\ngini = 0.496\nsamples = 284\nvalue = [129, 155]"] ;
32 -> 33 ;
34 [label="INCOME <= 41597.5\ngini = 0.417\nsamples = 54\nvalue = [16, 38]"] ;
33 -> 34 ;
35 [label="AVERAGE_CALL_DURATION <= 10.5\ngini = 0.497\nsamples = 26\nvalue = [12, 14]"] ;
34 -> 35 ;
36 [label="INCOME <= 21396.5\ngini = 0.298\nsamples = 11\nvalue = [2, 9]"] ;
35 -> 36 ;
37 [label="gini = 0.0\nsamples = 1\nvalue = [1, 0]"] ;
36 -> 37 ;
38 [label="INCOME <= 41049.0\ngini = 0.18\nsamples = 10\nvalue = [1, 9]"] ;
36 -> 38 ;
39 [label="gini = 0.0\nsamples = 9\nvalue = [0, 9]"] ;
38 -> 39 ;
40 [label="gini = 0.0\nsamples = 1\nvalue = [1, 0]"] ;
38 -> 40 ;
41 [label="OVERAGE <= 73.5\ngini = 0.444\nsamples = 15\nvalue = [10, 5]"] ;
35 -> 41 ;
42 [label="HOUSE <= 229542.0\ngini = 0.355\nsamples = 13\nvalue = [10, 3]"] ;
41 -> 42 ;
43 [label="AVERAGE_CALL_DURATION <= 12.5\ngini = 0.278\nsamples = 12\nvalue = [10, 2]"] ;
42 -> 43 ;
44 [label="REPORTED_SATISFACTION_very_unsat <= 0.5\ngini = 0.444\nsamples = 6\nvalue = [4, 2]"] ;
43 -> 44 ;
45 [label="REPORTED_USAGE_LEVEL_little <= 0.5\ngini = 0.444\nsamples = 3\nvalue = [1, 2]"] ;
44 -> 45 ;
46 [label="gini = 0.0\nsamples = 1\nvalue = [1, 0]"] ;
45 -> 46 ;
47 [label="gini = 0.0\nsamples = 2\nvalue = [0, 2]"] ;
45 -> 47 ;
48 [label="gini = 0.0\nsamples = 3\nvalue = [3, 0]"] ;
44 -> 48 ;
49 [label="gini = 0.0\nsamples = 6\nvalue = [6, 0]"] ;
43 -> 49 ;
50 [label="gini = 0.0\nsamples = 1\nvalue = [0, 1]"] ;
42 -> 50 ;
51 [label="gini = 0.0\nsamples = 2\nvalue = [0, 2]"] ;
41 -> 51 ;
52 [label="HOUSE <= 197864.5\ngini = 0.245\nsamples = 28\nvalue = [4, 24]"] ;
34 -> 52 ;
53 [label="INCOME <= 52553.5\ngini = 0.5\nsamples = 6\nvalue = [3, 3]"] ;
52 -> 53 ;
54 [label="OVERAGE <= 53.0\ngini = 0.375\nsamples = 4\nvalue = [3, 1]"] ;
53 -> 54 ;
55 [label="gini = 0.0\nsamples = 3\nvalue = [3, 0]"] ;
54 -> 55 ;
56 [label="gini = 0.0\nsamples = 1\nvalue = [0, 1]"] ;
54 -> 56 ;
57 [label="gini = 0.0\nsamples = 2\nvalue = [0, 2]"] ;
53 -> 57 ;
58 [label="INCOME <= 57314.0\ngini = 0.087\nsamples = 22\nvalue = [1, 21]"] ;
52 -> 58 ;
59 [label="gini = 0.0\nsamples = 20\nvalue = [0, 20]"] ;
58 -> 59 ;
60 [label="REPORTED_SATISFACTION_very_unsat <= 0.5\ngini = 0.5\nsamples = 2\nvalue = [1, 1]"] ;
58 -> 60 ;
61 [label="gini = 0.0\nsamples = 1\nvalue = [1, 0]"] ;
60 -> 61 ;
62 [label="gini = 0.0\nsamples = 1\nvalue = [0, 1]"] ;
60 -> 62 ;
63 [label="HOUSE <= 260264.0\ngini = 0.5\nsamples = 230\nvalue = [113, 117]"] ;
33 -> 63 ;
64 [label="INCOME <= 24567.5\ngini = 0.432\nsamples = 19\nvalue = [13, 6]"] ;
63 -> 64 ;
65 [label="gini = 0.0\nsamples = 3\nvalue = [0, 3]"] ;
64 -> 65 ;
66 [label="OVERAGE <= 84.5\ngini = 0.305\nsamples = 16\nvalue = [13, 3]"] ;
64 -> 66 ;
67 [label="INCOME <= 39884.5\ngini = 0.231\nsamples = 15\nvalue = [13, 2]"] ;
66 -> 67 ;
68 [label="gini = 0.0\nsamples = 9\nvalue = [9, 0]"] ;
67 -> 68 ;
69 [label="CONSIDERING_CHANGE_OF_PLAN_considering <= 0.5\ngini = 0.444\nsamples = 6\nvalue = [4, 2]"] ;
67 -> 69 ;
70 [label="gini = 0.0\nsamples = 4\nvalue = [4, 0]"] ;
69 -> 70 ;
71 [label="gini = 0.0\nsamples = 2\nvalue = [0, 2]"] ;
69 -> 71 ;
72 [label="gini = 0.0\nsamples = 1\nvalue = [0, 1]"] ;
66 -> 72 ;
73 [label="REPORTED_USAGE_LEVEL_high <= 0.5\ngini = 0.499\nsamples = 211\nvalue = [100, 111]"] ;
63 -> 73 ;
74 [label="HOUSE <= 262005.5\ngini = 0.496\nsamples = 191\nvalue = [87, 104]"] ;
73 -> 74 ;
75 [label="gini = 0.0\nsamples = 3\nvalue = [0, 3]"] ;
74 -> 75 ;
76 [label="INCOME <= 58421.0\ngini = 0.497\nsamples = 188\nvalue = [87, 101]"] ;
74 -> 76 ;
77 [label="OVER_15MINS_CALLS_PER_MONTH <= 0.5\ngini = 0.496\nsamples = 183\nvalue = [83, 100]"] ;
76 -> 77 ;
78 [label="HANDSET_PRICE <= 227.5\ngini = 0.457\nsamples = 51\nvalue = [18, 33]"] ;
77 -> 78 ;
79 [label="INCOME <= 38007.5\ngini = 0.358\nsamples = 30\nvalue = [7, 23]"] ;
78 -> 79 ;
80 [label="AVERAGE_CALL_DURATION <= 13.5\ngini = 0.484\nsamples = 17\nvalue = [7, 10]"] ;
79 -> 80 ;
81 [label="REPORTED_SATISFACTION_unsat <= 0.5\ngini = 0.444\nsamples = 15\nvalue = [5, 10]"] ;
80 -> 81 ;
82 [label="HOUSE <= 286935.0\ngini = 0.298\nsamples = 11\nvalue = [2, 9]"] ;
81 -> 82 ;
83 [label="gini = 0.0\nsamples = 1\nvalue = [1, 0]"] ;
82 -> 83 ;
84 [label="HANDSET_PRICE <= 146.0\ngini = 0.18\nsamples = 10\nvalue = [1, 9]"] ;
82 -> 84 ;
85 [label="AVERAGE_CALL_DURATION <= 10.0\ngini = 0.5\nsamples = 2\nvalue = [1, 1]"] ;
84 -> 85 ;
86 [label="gini = 0.0\nsamples = 1\nvalue = [0, 1]"] ;
85 -> 86 ;
87 [label="gini = 0.0\nsamples = 1\nvalue = [1, 0]"] ;
85 -> 87 ;
88 [label="gini = 0.0\nsamples = 8\nvalue = [0, 8]"] ;
84 -> 88 ;
89 [label="CONSIDERING_CHANGE_OF_PLAN_no <= 0.5\ngini = 0.375\nsamples = 4\nvalue = [3, 1]"] ;
81 -> 89 ;
90 [label="gini = 0.0\nsamples = 3\nvalue = [3, 0]"] ;
89 -> 90 ;
91 [label="gini = 0.0\nsamples = 1\nvalue = [0, 1]"] ;
89 -> 91 ;
92 [label="gini = 0.0\nsamples = 2\nvalue = [2, 0]"] ;
80 -> 92 ;
93 [label="gini = 0.0\nsamples = 13\nvalue = [0, 13]"] ;
79 -> 93 ;
94 [label="HOUSE <= 527378.5\ngini = 0.499\nsamples = 21\nvalue = [11, 10]"] ;
78 -> 94 ;
95 [label="AVERAGE_CALL_DURATION <= 11.5\ngini = 0.459\nsamples = 14\nvalue = [5, 9]"] ;
94 -> 95 ;
96 [label="INCOME <= 32591.0\ngini = 0.494\nsamples = 9\nvalue = [5, 4]"] ;
95 -> 96 ;
97 [label="gini = 0.0\nsamples = 2\nvalue = [0, 2]"] ;
96 -> 97 ;
98 [label="INCOME <= 51134.0\ngini = 0.408\nsamples = 7\nvalue = [5, 2]"] ;
96 -> 98 ;
99 [label="gini = 0.0\nsamples = 4\nvalue = [4, 0]"] ;
98 -> 99 ;
100 [label="AVERAGE_CALL_DURATION <= 5.5\ngini = 0.444\nsamples = 3\nvalue = [1, 2]"] ;
98 -> 100 ;
101 [label="gini = 0.0\nsamples = 1\nvalue = [1, 0]"] ;
100 -> 101 ;
102 [label="gini = 0.0\nsamples = 2\nvalue = [0, 2]"] ;
100 -> 102 ;
103 [label="gini = 0.0\nsamples = 5\nvalue = [0, 5]"] ;
95 -> 103 ;
104 [label="CONSIDERING_CHANGE_OF_PLAN_perhaps <= 0.5\ngini = 0.245\nsamples = 7\nvalue = [6, 1]"] ;
94 -> 104 ;
105 [label="gini = 0.0\nsamples = 6\nvalue = [6, 0]"] ;
104 -> 105 ;
106 [label="gini = 0.0\nsamples = 1\nvalue = [0, 1]"] ;
104 -> 106 ;
107 [label="HOUSE <= 434844.0\ngini = 0.5\nsamples = 132\nvalue = [65, 67]"] ;
77 -> 107 ;
108 [label="AVERAGE_CALL_DURATION <= 14.5\ngini = 0.474\nsamples = 57\nvalue = [35, 22]"] ;
107 -> 108 ;
109 [label="OVER_15MINS_CALLS_PER_MONTH <= 2.0\ngini = 0.444\nsamples = 51\nvalue = [34, 17]"] ;
108 -> 109 ;
110 [label="CONSIDERING_CHANGE_OF_PLAN_perhaps <= 0.5\ngini = 0.198\nsamples = 18\nvalue = [16, 2]"] ;
109 -> 110 ;
111 [label="AVERAGE_CALL_DURATION <= 6.5\ngini = 0.111\nsamples = 17\nvalue = [16, 1]"] ;
110 -> 111 ;
112 [label="CONSIDERING_CHANGE_OF_PLAN_considering <= 0.5\ngini = 0.444\nsamples = 3\nvalue = [2, 1]"] ;
111 -> 112 ;
113 [label="gini = 0.0\nsamples = 1\nvalue = [0, 1]"] ;
112 -> 113 ;
114 [label="gini = 0.0\nsamples = 2\nvalue = [2, 0]"] ;
112 -> 114 ;
115 [label="gini = 0.0\nsamples = 14\nvalue = [14, 0]"] ;
111 -> 115 ;
116 [label="gini = 0.0\nsamples = 1\nvalue = [0, 1]"] ;
110 -> 116 ;
117 [label="HANDSET_PRICE <= 224.0\ngini = 0.496\nsamples = 33\nvalue = [18, 15]"] ;
109 -> 117 ;
118 [label="AVERAGE_CALL_DURATION <= 11.5\ngini = 0.423\nsamples = 23\nvalue = [16, 7]"] ;
117 -> 118 ;
119 [label="CONSIDERING_CHANGE_OF_PLAN_considering <= 0.5\ngini = 0.231\nsamples = 15\nvalue = [13, 2]"] ;
118 -> 119 ;
120 [label="gini = 0.0\nsamples = 10\nvalue = [10, 0]"] ;
119 -> 120 ;
121 [label="OVERAGE <= 56.5\ngini = 0.48\nsamples = 5\nvalue = [3, 2]"] ;
119 -> 121 ;
122 [label="gini = 0.0\nsamples = 2\nvalue = [2, 0]"] ;
121 -> 122 ;
123 [label="HANDSET_PRICE <= 192.5\ngini = 0.444\nsamples = 3\nvalue = [1, 2]"] ;
121 -> 123 ;
124 [label="gini = 0.0\nsamples = 2\nvalue = [0, 2]"] ;
123 -> 124 ;
125 [label="gini = 0.0\nsamples = 1\nvalue = [1, 0]"] ;
123 -> 125 ;
126 [label="CONSIDERING_CHANGE_OF_PLAN_considering <= 0.5\ngini = 0.469\nsamples = 8\nvalue = [3, 5]"] ;
118 -> 126 ;
127 [label="gini = 0.0\nsamples = 4\nvalue = [0, 4]"] ;
126 -> 127 ;
128 [label="INCOME <= 35214.5\ngini = 0.375\nsamples = 4\nvalue = [3, 1]"] ;
126 -> 128 ;
129 [label="gini = 0.0\nsamples = 1\nvalue = [0, 1]"] ;
128 -> 129 ;
130 [label="gini = 0.0\nsamples = 3\nvalue = [3, 0]"] ;
128 -> 130 ;
131 [label="AVERAGE_CALL_DURATION <= 8.5\ngini = 0.32\nsamples = 10\nvalue = [2, 8]"] ;
117 -> 131 ;
132 [label="HANDSET_PRICE <= 394.5\ngini = 0.444\nsamples = 3\nvalue = [2, 1]"] ;
131 -> 132 ;
133 [label="gini = 0.0\nsamples = 2\nvalue = [2, 0]"] ;
132 -> 133 ;
134 [label="gini = 0.0\nsamples = 1\nvalue = [0, 1]"] ;
132 -> 134 ;
135 [label="gini = 0.0\nsamples = 7\nvalue = [0, 7]"] ;
131 -> 135 ;
136 [label="REPORTED_USAGE_LEVEL_very_little <= 0.5\ngini = 0.278\nsamples = 6\nvalue = [1, 5]"] ;
108 -> 136 ;
137 [label="gini = 0.0\nsamples = 4\nvalue = [0, 4]"] ;
136 -> 137 ;
138 [label="HOUSE <= 301730.5\ngini = 0.5\nsamples = 2\nvalue = [1, 1]"] ;
136 -> 138 ;
139 [label="gini = 0.0\nsamples = 1\nvalue = [0, 1]"] ;
138 -> 139 ;
140 [label="gini = 0.0\nsamples = 1\nvalue = [1, 0]"] ;
138 -> 140 ;
141 [label="HOUSE <= 593505.0\ngini = 0.48\nsamples = 75\nvalue = [30, 45]"] ;
107 -> 141 ;
142 [label="HOUSE <= 581631.0\ngini = 0.473\nsamples = 73\nvalue = [28, 45]"] ;
141 -> 142 ;
143 [label="OVERAGE <= 40.0\ngini = 0.484\nsamples = 68\nvalue = [28, 40]"] ;
142 -> 143 ;
144 [label="HOUSE <= 558556.0\ngini = 0.5\nsamples = 44\nvalue = [22, 22]"] ;
143 -> 144 ;
145 [label="CONSIDERING_CHANGE_OF_PLAN_considering <= 0.5\ngini = 0.491\nsamples = 37\nvalue = [16, 21]"] ;
144 -> 145 ;
146 [label="OVER_15MINS_CALLS_PER_MONTH <= 2.0\ngini = 0.434\nsamples = 22\nvalue = [7, 15]"] ;
145 -> 146 ;
147 [label="REPORTED_SATISFACTION_very_unsat <= 0.5\ngini = 0.475\nsamples = 18\nvalue = [7, 11]"] ;
146 -> 147 ;
148 [label="AVERAGE_CALL_DURATION <= 13.5\ngini = 0.375\nsamples = 12\nvalue = [3, 9]"] ;
147 -> 148 ;
149 [label="CONSIDERING_CHANGE_OF_PLAN_no <= 0.5\ngini = 0.198\nsamples = 9\nvalue = [1, 8]"] ;
148 -> 149 ;
150 [label="gini = 0.0\nsamples = 7\nvalue = [0, 7]"] ;
149 -> 150 ;
151 [label="HANDSET_PRICE <= 176.5\ngini = 0.5\nsamples = 2\nvalue = [1, 1]"] ;
149 -> 151 ;
152 [label="gini = 0.0\nsamples = 1\nvalue = [0, 1]"] ;
151 -> 152 ;
153 [label="gini = 0.0\nsamples = 1\nvalue = [1, 0]"] ;
151 -> 153 ;
154 [label="HANDSET_PRICE <= 206.0\ngini = 0.444\nsamples = 3\nvalue = [2, 1]"] ;
148 -> 154 ;
155 [label="gini = 0.0\nsamples = 1\nvalue = [0, 1]"] ;
154 -> 155 ;
156 [label="gini = 0.0\nsamples = 2\nvalue = [2, 0]"] ;
154 -> 156 ;
157 [label="HANDSET_PRICE <= 232.5\ngini = 0.444\nsamples = 6\nvalue = [4, 2]"] ;
147 -> 157 ;
158 [label="gini = 0.0\nsamples = 4\nvalue = [4, 0]"] ;
157 -> 158 ;
159 [label="gini = 0.0\nsamples = 2\nvalue = [0, 2]"] ;
157 -> 159 ;
160 [label="gini = 0.0\nsamples = 4\nvalue = [0, 4]"] ;
146 -> 160 ;
161 [label="INCOME <= 27163.0\ngini = 0.48\nsamples = 15\nvalue = [9, 6]"] ;
145 -> 161 ;
162 [label="gini = 0.0\nsamples = 2\nvalue = [0, 2]"] ;
161 -> 162 ;
163 [label="HOUSE <= 469651.0\ngini = 0.426\nsamples = 13\nvalue = [9, 4]"] ;
161 -> 163 ;
164 [label="gini = 0.0\nsamples = 5\nvalue = [5, 0]"] ;
163 -> 164 ;
165 [label="AVERAGE_CALL_DURATION <= 8.5\ngini = 0.5\nsamples = 8\nvalue = [4, 4]"] ;
163 -> 165 ;
166 [label="gini = 0.0\nsamples = 3\nvalue = [3, 0]"] ;
165 -> 166 ;
167 [label="INCOME <= 48819.5\ngini = 0.32\nsamples = 5\nvalue = [1, 4]"] ;
165 -> 167 ;
168 [label="gini = 0.0\nsamples = 4\nvalue = [0, 4]"] ;
167 -> 168 ;
169 [label="gini = 0.0\nsamples = 1\nvalue = [1, 0]"] ;
167 -> 169 ;
170 [label="AVERAGE_CALL_DURATION <= 6.5\ngini = 0.245\nsamples = 7\nvalue = [6, 1]"] ;
144 -> 170 ;
171 [label="gini = 0.0\nsamples = 1\nvalue = [0, 1]"] ;
170 -> 171 ;
172 [label="gini = 0.0\nsamples = 6\nvalue = [6, 0]"] ;
170 -> 172 ;
173 [label="CONSIDERING_CHANGE_OF_PLAN_perhaps <= 0.5\ngini = 0.375\nsamples = 24\nvalue = [6, 18]"] ;
143 -> 173 ;
174 [label="REPORTED_SATISFACTION_unsat <= 0.5\ngini = 0.298\nsamples = 22\nvalue = [4, 18]"] ;
173 -> 174 ;
175 [label="CONSIDERING_CHANGE_OF_PLAN_no <= 0.5\ngini = 0.188\nsamples = 19\nvalue = [2, 17]"] ;
174 -> 175 ;
176 [label="gini = 0.0\nsamples = 14\nvalue = [0, 14]"] ;
175 -> 176 ;
177 [label="INCOME <= 35168.0\ngini = 0.48\nsamples = 5\nvalue = [2, 3]"] ;
175 -> 177 ;
178 [label="INCOME <= 27511.0\ngini = 0.444\nsamples = 3\nvalue = [2, 1]"] ;
177 -> 178 ;
179 [label="gini = 0.0\nsamples = 1\nvalue = [0, 1]"] ;
178 -> 179 ;
180 [label="gini = 0.0\nsamples = 2\nvalue = [2, 0]"] ;
178 -> 180 ;
181 [label="gini = 0.0\nsamples = 2\nvalue = [0, 2]"] ;
177 -> 181 ;
182 [label="REPORTED_USAGE_LEVEL_very_little <= 0.5\ngini = 0.444\nsamples = 3\nvalue = [2, 1]"] ;
174 -> 182 ;
183 [label="gini = 0.0\nsamples = 2\nvalue = [2, 0]"] ;
182 -> 183 ;
184 [label="gini = 0.0\nsamples = 1\nvalue = [0, 1]"] ;
182 -> 184 ;
185 [label="gini = 0.0\nsamples = 2\nvalue = [2, 0]"] ;
173 -> 185 ;
186 [label="gini = 0.0\nsamples = 5\nvalue = [0, 5]"] ;
142 -> 186 ;
187 [label="gini = 0.0\nsamples = 2\nvalue = [2, 0]"] ;
141 -> 187 ;
188 [label="REPORTED_USAGE_LEVEL_little <= 0.5\ngini = 0.32\nsamples = 5\nvalue = [4, 1]"] ;
76 -> 188 ;
189 [label="gini = 0.0\nsamples = 1\nvalue = [0, 1]"] ;
188 -> 189 ;
190 [label="gini = 0.0\nsamples = 4\nvalue = [4, 0]"] ;
188 -> 190 ;
191 [label="OVERAGE <= 56.5\ngini = 0.455\nsamples = 20\nvalue = [13, 7]"] ;
73 -> 191 ;
192 [label="HANDSET_PRICE <= 180.0\ngini = 0.401\nsamples = 18\nvalue = [13, 5]"] ;
191 -> 192 ;
193 [label="gini = 0.0\nsamples = 6\nvalue = [6, 0]"] ;
192 -> 193 ;
194 [label="OVER_15MINS_CALLS_PER_MONTH <= 2.0\ngini = 0.486\nsamples = 12\nvalue = [7, 5]"] ;
192 -> 194 ;
195 [label="HOUSE <= 347040.0\ngini = 0.469\nsamples = 8\nvalue = [3, 5]"] ;
194 -> 195 ;
196 [label="gini = 0.0\nsamples = 3\nvalue = [0, 3]"] ;
195 -> 196 ;
197 [label="REPORTED_SATISFACTION_very_unsat <= 0.5\ngini = 0.48\nsamples = 5\nvalue = [3, 2]"] ;
195 -> 197 ;
198 [label="HANDSET_PRICE <= 241.0\ngini = 0.444\nsamples = 3\nvalue = [1, 2]"] ;
197 -> 198 ;
199 [label="gini = 0.0\nsamples = 1\nvalue = [1, 0]"] ;
198 -> 199 ;
200 [label="gini = 0.0\nsamples = 2\nvalue = [0, 2]"] ;
198 -> 200 ;
201 [label="gini = 0.0\nsamples = 2\nvalue = [2, 0]"] ;
197 -> 201 ;
202 [label="gini = 0.0\nsamples = 4\nvalue = [4, 0]"] ;
194 -> 202 ;
203 [label="gini = 0.0\nsamples = 2\nvalue = [0, 2]"] ;
191 -> 203 ;
204 [label="INCOME <= 24394.0\ngini = 0.456\nsamples = 94\nvalue = [61, 33]"] ;
32 -> 204 ;
205 [label="INCOME <= 20528.5\ngini = 0.117\nsamples = 16\nvalue = [15, 1]"] ;
204 -> 205 ;
206 [label="REPORTED_USAGE_LEVEL_little <= 0.5\ngini = 0.444\nsamples = 3\nvalue = [2, 1]"] ;
205 -> 206 ;
207 [label="gini = 0.0\nsamples = 2\nvalue = [2, 0]"] ;
206 -> 207 ;
208 [label="gini = 0.0\nsamples = 1\nvalue = [0, 1]"] ;
206 -> 208 ;
209 [label="gini = 0.0\nsamples = 13\nvalue = [13, 0]"] ;
205 -> 209 ;
210 [label="INCOME <= 32988.0\ngini = 0.484\nsamples = 78\nvalue = [46, 32]"] ;
204 -> 210 ;
211 [label="HANDSET_PRICE <= 221.0\ngini = 0.36\nsamples = 17\nvalue = [4, 13]"] ;
210 -> 211 ;
212 [label="HANDSET_PRICE <= 204.0\ngini = 0.48\nsamples = 10\nvalue = [4, 6]"] ;
211 -> 212 ;
213 [label="HOUSE <= 449949.5\ngini = 0.375\nsamples = 8\nvalue = [2, 6]"] ;
212 -> 213 ;
214 [label="gini = 0.0\nsamples = 5\nvalue = [0, 5]"] ;
213 -> 214 ;
215 [label="HANDSET_PRICE <= 180.0\ngini = 0.444\nsamples = 3\nvalue = [2, 1]"] ;
213 -> 215 ;
216 [label="gini = 0.0\nsamples = 2\nvalue = [2, 0]"] ;
215 -> 216 ;
217 [label="gini = 0.0\nsamples = 1\nvalue = [0, 1]"] ;
215 -> 217 ;
218 [label="gini = 0.0\nsamples = 2\nvalue = [2, 0]"] ;
212 -> 218 ;
219 [label="gini = 0.0\nsamples = 7\nvalue = [0, 7]"] ;
211 -> 219 ;
220 [label="REPORTED_SATISFACTION_very_sat <= 0.5\ngini = 0.429\nsamples = 61\nvalue = [42, 19]"] ;
210 -> 220 ;
221 [label="REPORTED_USAGE_LEVEL_very_little <= 0.5\ngini = 0.343\nsamples = 41\nvalue = [32, 9]"] ;
220 -> 221 ;
222 [label="INCOME <= 38682.0\ngini = 0.251\nsamples = 34\nvalue = [29, 5]"] ;
221 -> 222 ;
223 [label="HANDSET_PRICE <= 204.5\ngini = 0.49\nsamples = 7\nvalue = [4, 3]"] ;
222 -> 223 ;
224 [label="gini = 0.0\nsamples = 3\nvalue = [3, 0]"] ;
223 -> 224 ;
225 [label="REPORTED_USAGE_LEVEL_high <= 0.5\ngini = 0.375\nsamples = 4\nvalue = [1, 3]"] ;
223 -> 225 ;
226 [label="gini = 0.0\nsamples = 3\nvalue = [0, 3]"] ;
225 -> 226 ;
227 [label="gini = 0.0\nsamples = 1\nvalue = [1, 0]"] ;
225 -> 227 ;
228 [label="HOUSE <= 491138.5\ngini = 0.137\nsamples = 27\nvalue = [25, 2]"] ;
222 -> 228 ;
229 [label="gini = 0.0\nsamples = 18\nvalue = [18, 0]"] ;
228 -> 229 ;
230 [label="HOUSE <= 505920.0\ngini = 0.346\nsamples = 9\nvalue = [7, 2]"] ;
228 -> 230 ;
231 [label="gini = 0.0\nsamples = 1\nvalue = [0, 1]"] ;
230 -> 231 ;
232 [label="OVERAGE <= 75.0\ngini = 0.219\nsamples = 8\nvalue = [7, 1]"] ;
230 -> 232 ;
233 [label="gini = 0.0\nsamples = 7\nvalue = [7, 0]"] ;
232 -> 233 ;
234 [label="gini = 0.0\nsamples = 1\nvalue = [0, 1]"] ;
232 -> 234 ;
235 [label="HANDSET_PRICE <= 241.0\ngini = 0.49\nsamples = 7\nvalue = [3, 4]"] ;
221 -> 235 ;
236 [label="gini = 0.0\nsamples = 2\nvalue = [2, 0]"] ;
235 -> 236 ;
237 [label="OVERAGE <= 47.5\ngini = 0.32\nsamples = 5\nvalue = [1, 4]"] ;
235 -> 237 ;
238 [label="INCOME <= 54711.0\ngini = 0.5\nsamples = 2\nvalue = [1, 1]"] ;
237 -> 238 ;
239 [label="gini = 0.0\nsamples = 1\nvalue = [0, 1]"] ;
238 -> 239 ;
240 [label="gini = 0.0\nsamples = 1\nvalue = [1, 0]"] ;
238 -> 240 ;
241 [label="gini = 0.0\nsamples = 3\nvalue = [0, 3]"] ;
237 -> 241 ;
242 [label="HANDSET_PRICE <= 221.0\ngini = 0.5\nsamples = 20\nvalue = [10, 10]"] ;
220 -> 242 ;
243 [label="HANDSET_PRICE <= 143.0\ngini = 0.375\nsamples = 12\nvalue = [9, 3]"] ;
242 -> 243 ;
244 [label="OVERAGE <= 53.0\ngini = 0.444\nsamples = 3\nvalue = [1, 2]"] ;
243 -> 244 ;
245 [label="gini = 0.0\nsamples = 1\nvalue = [1, 0]"] ;
244 -> 245 ;
246 [label="gini = 0.0\nsamples = 2\nvalue = [0, 2]"] ;
244 -> 246 ;
247 [label="INCOME <= 40377.5\ngini = 0.198\nsamples = 9\nvalue = [8, 1]"] ;
243 -> 247 ;
248 [label="gini = 0.0\nsamples = 6\nvalue = [6, 0]"] ;
247 -> 248 ;
249 [label="INCOME <= 42715.0\ngini = 0.444\nsamples = 3\nvalue = [2, 1]"] ;
247 -> 249 ;
250 [label="gini = 0.0\nsamples = 1\nvalue = [0, 1]"] ;
249 -> 250 ;
251 [label="gini = 0.0\nsamples = 2\nvalue = [2, 0]"] ;
249 -> 251 ;
252 [label="INCOME <= 56351.0\ngini = 0.219\nsamples = 8\nvalue = [1, 7]"] ;
242 -> 252 ;
253 [label="gini = 0.0\nsamples = 6\nvalue = [0, 6]"] ;
252 -> 253 ;
254 [label="INCOME <= 58683.0\ngini = 0.5\nsamples = 2\nvalue = [1, 1]"] ;
252 -> 254 ;
255 [label="gini = 0.0\nsamples = 1\nvalue = [1, 0]"] ;
254 -> 255 ;
256 [label="gini = 0.0\nsamples = 1\nvalue = [0, 1]"] ;
254 -> 256 ;
257 [label="HOUSE <= 277901.0\ngini = 0.471\nsamples = 408\nvalue = [253, 155]"] ;
17 -> 257 ;
258 [label="HANDSET_PRICE <= 227.5\ngini = 0.499\nsamples = 164\nvalue = [85, 79]"] ;
257 -> 258 ;
259 [label="HOUSE <= 164853.5\ngini = 0.489\nsamples = 103\nvalue = [44, 59]"] ;
258 -> 259 ;
260 [label="gini = 0.0\nsamples = 5\nvalue = [5, 0]"] ;
259 -> 260 ;
261 [label="HOUSE <= 176144.5\ngini = 0.479\nsamples = 98\nvalue = [39, 59]"] ;
259 -> 261 ;
262 [label="gini = 0.0\nsamples = 9\nvalue = [0, 9]"] ;
261 -> 262 ;
263 [label="HOUSE <= 268376.0\ngini = 0.492\nsamples = 89\nvalue = [39, 50]"] ;
261 -> 263 ;
264 [label="OVER_15MINS_CALLS_PER_MONTH <= 14.5\ngini = 0.498\nsamples = 83\nvalue = [39, 44]"] ;
263 -> 264 ;
265 [label="INCOME <= 22611.5\ngini = 0.5\nsamples = 79\nvalue = [39, 40]"] ;
264 -> 265 ;
266 [label="OVER_15MINS_CALLS_PER_MONTH <= 0.5\ngini = 0.245\nsamples = 7\nvalue = [6, 1]"] ;
265 -> 266 ;
267 [label="REPORTED_SATISFACTION_very_unsat <= 0.5\ngini = 0.5\nsamples = 2\nvalue = [1, 1]"] ;
266 -> 267 ;
268 [label="gini = 0.0\nsamples = 1\nvalue = [1, 0]"] ;
267 -> 268 ;
269 [label="gini = 0.0\nsamples = 1\nvalue = [0, 1]"] ;
267 -> 269 ;
270 [label="gini = 0.0\nsamples = 5\nvalue = [5, 0]"] ;
266 -> 270 ;
271 [label="CONSIDERING_CHANGE_OF_PLAN_perhaps <= 0.5\ngini = 0.497\nsamples = 72\nvalue = [33, 39]"] ;
265 -> 271 ;
272 [label="AVERAGE_CALL_DURATION <= 14.5\ngini = 0.489\nsamples = 66\nvalue = [28, 38]"] ;
271 -> 272 ;
273 [label="INCOME <= 26810.0\ngini = 0.497\nsamples = 61\nvalue = [28, 33]"] ;
272 -> 273 ;
274 [label="AVERAGE_CALL_DURATION <= 2.5\ngini = 0.32\nsamples = 10\nvalue = [2, 8]"] ;
273 -> 274 ;
275 [label="gini = 0.0\nsamples = 1\nvalue = [1, 0]"] ;
274 -> 275 ;
276 [label="AVERAGE_CALL_DURATION <= 11.5\ngini = 0.198\nsamples = 9\nvalue = [1, 8]"] ;
274 -> 276 ;
277 [label="gini = 0.0\nsamples = 6\nvalue = [0, 6]"] ;
276 -> 277 ;
278 [label="HANDSET_PRICE <= 195.0\ngini = 0.444\nsamples = 3\nvalue = [1, 2]"] ;
276 -> 278 ;
279 [label="gini = 0.0\nsamples = 2\nvalue = [0, 2]"] ;
278 -> 279 ;
280 [label="gini = 0.0\nsamples = 1\nvalue = [1, 0]"] ;
278 -> 280 ;
281 [label="INCOME <= 41252.5\ngini = 0.5\nsamples = 51\nvalue = [26, 25]"] ;
273 -> 281 ;
282 [label="INCOME <= 37396.0\ngini = 0.48\nsamples = 35\nvalue = [21, 14]"] ;
281 -> 282 ;
283 [label="HOUSE <= 198865.5\ngini = 0.5\nsamples = 26\nvalue = [13, 13]"] ;
282 -> 283 ;
284 [label="INCOME <= 33904.0\ngini = 0.375\nsamples = 8\nvalue = [6, 2]"] ;
283 -> 284 ;
285 [label="gini = 0.0\nsamples = 6\nvalue = [6, 0]"] ;
284 -> 285 ;
286 [label="gini = 0.0\nsamples = 2\nvalue = [0, 2]"] ;
284 -> 286 ;
287 [label="INCOME <= 36110.0\ngini = 0.475\nsamples = 18\nvalue = [7, 11]"] ;
283 -> 287 ;
288 [label="HOUSE <= 236489.0\ngini = 0.43\nsamples = 16\nvalue = [5, 11]"] ;
287 -> 288 ;
289 [label="INCOME <= 29718.5\ngini = 0.198\nsamples = 9\nvalue = [1, 8]"] ;
288 -> 289 ;
290 [label="REPORTED_USAGE_LEVEL_very_high <= 0.5\ngini = 0.5\nsamples = 2\nvalue = [1, 1]"] ;
289 -> 290 ;
291 [label="gini = 0.0\nsamples = 1\nvalue = [1, 0]"] ;
290 -> 291 ;
292 [label="gini = 0.0\nsamples = 1\nvalue = [0, 1]"] ;
290 -> 292 ;
293 [label="gini = 0.0\nsamples = 7\nvalue = [0, 7]"] ;
289 -> 293 ;
294 [label="AVERAGE_CALL_DURATION <= 10.0\ngini = 0.49\nsamples = 7\nvalue = [4, 3]"] ;
288 -> 294 ;
295 [label="INCOME <= 34589.0\ngini = 0.32\nsamples = 5\nvalue = [4, 1]"] ;
294 -> 295 ;
296 [label="gini = 0.0\nsamples = 4\nvalue = [4, 0]"] ;
295 -> 296 ;
297 [label="gini = 0.0\nsamples = 1\nvalue = [0, 1]"] ;
295 -> 297 ;
298 [label="gini = 0.0\nsamples = 2\nvalue = [0, 2]"] ;
294 -> 298 ;
299 [label="gini = 0.0\nsamples = 2\nvalue = [2, 0]"] ;
287 -> 299 ;
300 [label="AVERAGE_CALL_DURATION <= 3.5\ngini = 0.198\nsamples = 9\nvalue = [8, 1]"] ;
282 -> 300 ;
301 [label="HOUSE <= 195355.5\ngini = 0.5\nsamples = 2\nvalue = [1, 1]"] ;
300 -> 301 ;
302 [label="gini = 0.0\nsamples = 1\nvalue = [1, 0]"] ;
301 -> 302 ;
303 [label="gini = 0.0\nsamples = 1\nvalue = [0, 1]"] ;
301 -> 303 ;
304 [label="gini = 0.0\nsamples = 7\nvalue = [7, 0]"] ;
300 -> 304 ;
305 [label="HOUSE <= 264437.5\ngini = 0.43\nsamples = 16\nvalue = [5, 11]"] ;
281 -> 305 ;
306 [label="OVER_15MINS_CALLS_PER_MONTH <= 3.5\ngini = 0.337\nsamples = 14\nvalue = [3, 11]"] ;
305 -> 306 ;
307 [label="gini = 0.0\nsamples = 10\nvalue = [0, 10]"] ;
306 -> 307 ;
308 [label="AVERAGE_CALL_DURATION <= 12.5\ngini = 0.375\nsamples = 4\nvalue = [3, 1]"] ;
306 -> 308 ;
309 [label="gini = 0.0\nsamples = 3\nvalue = [3, 0]"] ;
308 -> 309 ;
310 [label="gini = 0.0\nsamples = 1\nvalue = [0, 1]"] ;
308 -> 310 ;
311 [label="gini = 0.0\nsamples = 2\nvalue = [2, 0]"] ;
305 -> 311 ;
312 [label="gini = 0.0\nsamples = 5\nvalue = [0, 5]"] ;
272 -> 312 ;
313 [label="HANDSET_PRICE <= 220.5\ngini = 0.278\nsamples = 6\nvalue = [5, 1]"] ;
271 -> 313 ;
314 [label="gini = 0.0\nsamples = 5\nvalue = [5, 0]"] ;
313 -> 314 ;
315 [label="gini = 0.0\nsamples = 1\nvalue = [0, 1]"] ;
313 -> 315 ;
316 [label="gini = 0.0\nsamples = 4\nvalue = [0, 4]"] ;
264 -> 316 ;
317 [label="gini = 0.0\nsamples = 6\nvalue = [0, 6]"] ;
263 -> 317 ;
318 [label="HOUSE <= 259231.0\ngini = 0.441\nsamples = 61\nvalue = [41, 20]"] ;
258 -> 318 ;
319 [label="HOUSE <= 167008.0\ngini = 0.38\nsamples = 51\nvalue = [38, 13]"] ;
318 -> 319 ;
320 [label="gini = 0.0\nsamples = 2\nvalue = [0, 2]"] ;
319 -> 320 ;
321 [label="INCOME <= 22486.0\ngini = 0.348\nsamples = 49\nvalue = [38, 11]"] ;
319 -> 321 ;
322 [label="HOUSE <= 246366.5\ngini = 0.375\nsamples = 4\nvalue = [1, 3]"] ;
321 -> 322 ;
323 [label="gini = 0.0\nsamples = 3\nvalue = [0, 3]"] ;
322 -> 323 ;
324 [label="gini = 0.0\nsamples = 1\nvalue = [1, 0]"] ;
322 -> 324 ;
325 [label="HOUSE <= 222461.5\ngini = 0.292\nsamples = 45\nvalue = [37, 8]"] ;
321 -> 325 ;
326 [label="INCOME <= 56875.5\ngini = 0.137\nsamples = 27\nvalue = [25, 2]"] ;
325 -> 326 ;
327 [label="REPORTED_USAGE_LEVEL_very_high <= 0.5\ngini = 0.077\nsamples = 25\nvalue = [24, 1]"] ;
326 -> 327 ;
328 [label="gini = 0.0\nsamples = 20\nvalue = [20, 0]"] ;
327 -> 328 ;
329 [label="REPORTED_SATISFACTION_very_sat <= 0.5\ngini = 0.32\nsamples = 5\nvalue = [4, 1]"] ;
327 -> 329 ;
330 [label="gini = 0.0\nsamples = 4\nvalue = [4, 0]"] ;
329 -> 330 ;
331 [label="gini = 0.0\nsamples = 1\nvalue = [0, 1]"] ;
329 -> 331 ;
332 [label="INCOME <= 59401.0\ngini = 0.5\nsamples = 2\nvalue = [1, 1]"] ;
326 -> 332 ;
333 [label="gini = 0.0\nsamples = 1\nvalue = [0, 1]"] ;
332 -> 333 ;
334 [label="gini = 0.0\nsamples = 1\nvalue = [1, 0]"] ;
332 -> 334 ;
335 [label="OVERAGE <= 61.0\ngini = 0.444\nsamples = 18\nvalue = [12, 6]"] ;
325 -> 335 ;
336 [label="REPORTED_USAGE_LEVEL_very_little <= 0.5\ngini = 0.32\nsamples = 15\nvalue = [12, 3]"] ;
335 -> 336 ;
337 [label="OVER_15MINS_CALLS_PER_MONTH <= 4.5\ngini = 0.153\nsamples = 12\nvalue = [11, 1]"] ;
336 -> 337 ;
338 [label="gini = 0.0\nsamples = 10\nvalue = [10, 0]"] ;
337 -> 338 ;
339 [label="OVERAGE <= 57.0\ngini = 0.5\nsamples = 2\nvalue = [1, 1]"] ;
337 -> 339 ;
340 [label="gini = 0.0\nsamples = 1\nvalue = [0, 1]"] ;
339 -> 340 ;
341 [label="gini = 0.0\nsamples = 1\nvalue = [1, 0]"] ;
339 -> 341 ;
342 [label="HANDSET_PRICE <= 231.0\ngini = 0.444\nsamples = 3\nvalue = [1, 2]"] ;
336 -> 342 ;
343 [label="gini = 0.0\nsamples = 1\nvalue = [1, 0]"] ;
342 -> 343 ;
344 [label="gini = 0.0\nsamples = 2\nvalue = [0, 2]"] ;
342 -> 344 ;
345 [label="gini = 0.0\nsamples = 3\nvalue = [0, 3]"] ;
335 -> 345 ;
346 [label="REPORTED_SATISFACTION_very_unsat <= 0.5\ngini = 0.42\nsamples = 10\nvalue = [3, 7]"] ;
318 -> 346 ;
347 [label="gini = 0.0\nsamples = 6\nvalue = [0, 6]"] ;
346 -> 347 ;
348 [label="CONSIDERING_CHANGE_OF_PLAN_considering <= 0.5\ngini = 0.375\nsamples = 4\nvalue = [3, 1]"] ;
346 -> 348 ;
349 [label="gini = 0.0\nsamples = 3\nvalue = [3, 0]"] ;
348 -> 349 ;
350 [label="gini = 0.0\nsamples = 1\nvalue = [0, 1]"] ;
348 -> 350 ;
351 [label="HOUSE <= 569974.5\ngini = 0.429\nsamples = 244\nvalue = [168, 76]"] ;
257 -> 351 ;
352 [label="HOUSE <= 467391.0\ngini = 0.442\nsamples = 230\nvalue = [154, 76]"] ;
351 -> 352 ;
353 [label="INCOME <= 25764.5\ngini = 0.396\nsamples = 158\nvalue = [115, 43]"] ;
352 -> 353 ;
354 [label="CONSIDERING_CHANGE_OF_PLAN_no <= 0.5\ngini = 0.497\nsamples = 24\nvalue = [13, 11]"] ;
353 -> 354 ;
355 [label="HOUSE <= 310021.0\ngini = 0.469\nsamples = 16\nvalue = [6, 10]"] ;
354 -> 355 ;
356 [label="gini = 0.0\nsamples = 5\nvalue = [0, 5]"] ;
355 -> 356 ;
357 [label="INCOME <= 24596.0\ngini = 0.496\nsamples = 11\nvalue = [6, 5]"] ;
355 -> 357 ;
358 [label="AVERAGE_CALL_DURATION <= 14.5\ngini = 0.278\nsamples = 6\nvalue = [5, 1]"] ;
357 -> 358 ;
359 [label="gini = 0.0\nsamples = 5\nvalue = [5, 0]"] ;
358 -> 359 ;
360 [label="gini = 0.0\nsamples = 1\nvalue = [0, 1]"] ;
358 -> 360 ;
361 [label="HOUSE <= 355930.0\ngini = 0.32\nsamples = 5\nvalue = [1, 4]"] ;
357 -> 361 ;
362 [label="gini = 0.0\nsamples = 1\nvalue = [1, 0]"] ;
361 -> 362 ;
363 [label="gini = 0.0\nsamples = 4\nvalue = [0, 4]"] ;
361 -> 363 ;
364 [label="HOUSE <= 285511.5\ngini = 0.219\nsamples = 8\nvalue = [7, 1]"] ;
354 -> 364 ;
365 [label="gini = 0.0\nsamples = 1\nvalue = [0, 1]"] ;
364 -> 365 ;
366 [label="gini = 0.0\nsamples = 7\nvalue = [7, 0]"] ;
364 -> 366 ;
367 [label="HOUSE <= 411153.5\ngini = 0.364\nsamples = 134\nvalue = [102, 32]"] ;
353 -> 367 ;
368 [label="HOUSE <= 309367.0\ngini = 0.411\nsamples = 104\nvalue = [74, 30]"] ;
367 -> 368 ;
369 [label="REPORTED_USAGE_LEVEL_very_little <= 0.5\ngini = 0.251\nsamples = 34\nvalue = [29, 5]"] ;
368 -> 369 ;
370 [label="HANDSET_PRICE <= 448.0\ngini = 0.133\nsamples = 28\nvalue = [26, 2]"] ;
369 -> 370 ;
371 [label="HOUSE <= 281921.5\ngini = 0.077\nsamples = 25\nvalue = [24, 1]"] ;
370 -> 371 ;
372 [label="HOUSE <= 280999.5\ngini = 0.375\nsamples = 4\nvalue = [3, 1]"] ;
371 -> 372 ;
373 [label="gini = 0.0\nsamples = 3\nvalue = [3, 0]"] ;
372 -> 373 ;
374 [label="gini = 0.0\nsamples = 1\nvalue = [0, 1]"] ;
372 -> 374 ;
375 [label="gini = 0.0\nsamples = 21\nvalue = [21, 0]"] ;
371 -> 375 ;
376 [label="HANDSET_PRICE <= 660.5\ngini = 0.444\nsamples = 3\nvalue = [2, 1]"] ;
370 -> 376 ;
377 [label="gini = 0.0\nsamples = 1\nvalue = [0, 1]"] ;
376 -> 377 ;
378 [label="gini = 0.0\nsamples = 2\nvalue = [2, 0]"] ;
376 -> 378 ;
379 [label="HOUSE <= 286056.0\ngini = 0.5\nsamples = 6\nvalue = [3, 3]"] ;
369 -> 379 ;
380 [label="gini = 0.0\nsamples = 2\nvalue = [2, 0]"] ;
379 -> 380 ;
381 [label="OVERAGE <= 88.5\ngini = 0.375\nsamples = 4\nvalue = [1, 3]"] ;
379 -> 381 ;
382 [label="gini = 0.0\nsamples = 3\nvalue = [0, 3]"] ;
381 -> 382 ;
383 [label="gini = 0.0\nsamples = 1\nvalue = [1, 0]"] ;
381 -> 383 ;
384 [label="HOUSE <= 311801.0\ngini = 0.459\nsamples = 70\nvalue = [45, 25]"] ;
368 -> 384 ;
385 [label="gini = 0.0\nsamples = 2\nvalue = [0, 2]"] ;
384 -> 385 ;
386 [label="AVERAGE_CALL_DURATION <= 10.5\ngini = 0.448\nsamples = 68\nvalue = [45, 23]"] ;
384 -> 386 ;
387 [label="CONSIDERING_CHANGE_OF_PLAN_no <= 0.5\ngini = 0.495\nsamples = 29\nvalue = [16, 13]"] ;
386 -> 387 ;
388 [label="REPORTED_USAGE_LEVEL_high <= 0.5\ngini = 0.454\nsamples = 23\nvalue = [15, 8]"] ;
387 -> 388 ;
389 [label="HANDSET_PRICE <= 236.5\ngini = 0.408\nsamples = 21\nvalue = [15, 6]"] ;
388 -> 389 ;
390 [label="HANDSET_PRICE <= 229.5\ngini = 0.469\nsamples = 16\nvalue = [10, 6]"] ;
389 -> 390 ;
391 [label="INCOME <= 31289.0\ngini = 0.408\nsamples = 14\nvalue = [10, 4]"] ;
390 -> 391 ;
392 [label="gini = 0.0\nsamples = 5\nvalue = [5, 0]"] ;
391 -> 392 ;
393 [label="CONSIDERING_CHANGE_OF_PLAN_never_thought <= 0.5\ngini = 0.494\nsamples = 9\nvalue = [5, 4]"] ;
391 -> 393 ;
394 [label="OVER_15MINS_CALLS_PER_MONTH <= 0.5\ngini = 0.49\nsamples = 7\nvalue = [3, 4]"] ;
393 -> 394 ;
395 [label="gini = 0.0\nsamples = 2\nvalue = [0, 2]"] ;
394 -> 395 ;
396 [label="AVERAGE_CALL_DURATION <= 8.5\ngini = 0.48\nsamples = 5\nvalue = [3, 2]"] ;
394 -> 396 ;
397 [label="HANDSET_PRICE <= 201.0\ngini = 0.444\nsamples = 3\nvalue = [1, 2]"] ;
396 -> 397 ;
398 [label="gini = 0.0\nsamples = 2\nvalue = [0, 2]"] ;
397 -> 398 ;
399 [label="gini = 0.0\nsamples = 1\nvalue = [1, 0]"] ;
397 -> 399 ;
400 [label="gini = 0.0\nsamples = 2\nvalue = [2, 0]"] ;
396 -> 400 ;
401 [label="gini = 0.0\nsamples = 2\nvalue = [2, 0]"] ;
393 -> 401 ;
402 [label="gini = 0.0\nsamples = 2\nvalue = [0, 2]"] ;
390 -> 402 ;
403 [label="gini = 0.0\nsamples = 5\nvalue = [5, 0]"] ;
389 -> 403 ;
404 [label="gini = 0.0\nsamples = 2\nvalue = [0, 2]"] ;
388 -> 404 ;
405 [label="AVERAGE_CALL_DURATION <= 5.0\ngini = 0.278\nsamples = 6\nvalue = [1, 5]"] ;
387 -> 405 ;
406 [label="gini = 0.0\nsamples = 1\nvalue = [1, 0]"] ;
405 -> 406 ;
407 [label="gini = 0.0\nsamples = 5\nvalue = [0, 5]"] ;
405 -> 407 ;
408 [label="HOUSE <= 362455.5\ngini = 0.381\nsamples = 39\nvalue = [29, 10]"] ;
386 -> 408 ;
409 [label="OVERAGE <= 51.5\ngini = 0.476\nsamples = 23\nvalue = [14, 9]"] ;
408 -> 409 ;
410 [label="AVERAGE_CALL_DURATION <= 12.5\ngini = 0.498\nsamples = 17\nvalue = [8, 9]"] ;
409 -> 410 ;
411 [label="INCOME <= 46006.0\ngini = 0.375\nsamples = 8\nvalue = [2, 6]"] ;
410 -> 411 ;
412 [label="gini = 0.0\nsamples = 6\nvalue = [0, 6]"] ;
411 -> 412 ;
413 [label="gini = 0.0\nsamples = 2\nvalue = [2, 0]"] ;
411 -> 413 ;
414 [label="HOUSE <= 342457.0\ngini = 0.444\nsamples = 9\nvalue = [6, 3]"] ;
410 -> 414 ;
415 [label="OVER_15MINS_CALLS_PER_MONTH <= 0.5\ngini = 0.48\nsamples = 5\nvalue = [2, 3]"] ;
414 -> 415 ;
416 [label="gini = 0.0\nsamples = 2\nvalue = [2, 0]"] ;
415 -> 416 ;
417 [label="gini = 0.0\nsamples = 3\nvalue = [0, 3]"] ;
415 -> 417 ;
418 [label="gini = 0.0\nsamples = 4\nvalue = [4, 0]"] ;
414 -> 418 ;
419 [label="gini = 0.0\nsamples = 6\nvalue = [6, 0]"] ;
409 -> 419 ;
420 [label="HANDSET_PRICE <= 150.5\ngini = 0.117\nsamples = 16\nvalue = [15, 1]"] ;
408 -> 420 ;
421 [label="INCOME <= 35238.5\ngini = 0.444\nsamples = 3\nvalue = [2, 1]"] ;
420 -> 421 ;
422 [label="gini = 0.0\nsamples = 2\nvalue = [2, 0]"] ;
421 -> 422 ;
423 [label="gini = 0.0\nsamples = 1\nvalue = [0, 1]"] ;
421 -> 423 ;
424 [label="gini = 0.0\nsamples = 13\nvalue = [13, 0]"] ;
420 -> 424 ;
425 [label="HANDSET_PRICE <= 165.5\ngini = 0.124\nsamples = 30\nvalue = [28, 2]"] ;
367 -> 425 ;
426 [label="HOUSE <= 462370.0\ngini = 0.375\nsamples = 8\nvalue = [6, 2]"] ;
425 -> 426 ;
427 [label="HANDSET_PRICE <= 161.5\ngini = 0.245\nsamples = 7\nvalue = [6, 1]"] ;
426 -> 427 ;
428 [label="gini = 0.0\nsamples = 5\nvalue = [5, 0]"] ;
427 -> 428 ;
429 [label="INCOME <= 26925.5\ngini = 0.5\nsamples = 2\nvalue = [1, 1]"] ;
427 -> 429 ;
430 [label="gini = 0.0\nsamples = 1\nvalue = [1, 0]"] ;
429 -> 430 ;
431 [label="gini = 0.0\nsamples = 1\nvalue = [0, 1]"] ;
429 -> 431 ;
432 [label="gini = 0.0\nsamples = 1\nvalue = [0, 1]"] ;
426 -> 432 ;
433 [label="gini = 0.0\nsamples = 22\nvalue = [22, 0]"] ;
425 -> 433 ;
434 [label="REPORTED_SATISFACTION_unsat <= 0.5\ngini = 0.497\nsamples = 72\nvalue = [39, 33]"] ;
352 -> 434 ;
435 [label="OVERAGE <= 58.5\ngini = 0.497\nsamples = 54\nvalue = [25, 29]"] ;
434 -> 435 ;
436 [label="INCOME <= 22727.5\ngini = 0.494\nsamples = 36\nvalue = [20, 16]"] ;
435 -> 436 ;
437 [label="gini = 0.0\nsamples = 2\nvalue = [0, 2]"] ;
436 -> 437 ;
438 [label="OVERAGE <= 51.0\ngini = 0.484\nsamples = 34\nvalue = [20, 14]"] ;
436 -> 438 ;
439 [label="OVERAGE <= 43.5\ngini = 0.498\nsamples = 30\nvalue = [16, 14]"] ;
438 -> 439 ;
440 [label="INCOME <= 25038.5\ngini = 0.49\nsamples = 28\nvalue = [16, 12]"] ;
439 -> 440 ;
441 [label="gini = 0.0\nsamples = 4\nvalue = [4, 0]"] ;
440 -> 441 ;
442 [label="AVERAGE_CALL_DURATION <= 9.5\ngini = 0.5\nsamples = 24\nvalue = [12, 12]"] ;
440 -> 442 ;
443 [label="HANDSET_PRICE <= 131.0\ngini = 0.444\nsamples = 15\nvalue = [10, 5]"] ;
442 -> 443 ;
444 [label="gini = 0.0\nsamples = 1\nvalue = [0, 1]"] ;
443 -> 444 ;
445 [label="OVERAGE <= 34.0\ngini = 0.408\nsamples = 14\nvalue = [10, 4]"] ;
443 -> 445 ;
446 [label="INCOME <= 60217.5\ngini = 0.355\nsamples = 13\nvalue = [10, 3]"] ;
445 -> 446 ;
447 [label="AVERAGE_CALL_DURATION <= 7.0\ngini = 0.278\nsamples = 12\nvalue = [10, 2]"] ;
446 -> 447 ;
448 [label="AVERAGE_CALL_DURATION <= 3.0\ngini = 0.444\nsamples = 6\nvalue = [4, 2]"] ;
447 -> 448 ;
449 [label="gini = 0.0\nsamples = 3\nvalue = [3, 0]"] ;
448 -> 449 ;
450 [label="HOUSE <= 530703.5\ngini = 0.444\nsamples = 3\nvalue = [1, 2]"] ;
448 -> 450 ;
451 [label="gini = 0.0\nsamples = 2\nvalue = [0, 2]"] ;
450 -> 451 ;
452 [label="gini = 0.0\nsamples = 1\nvalue = [1, 0]"] ;
450 -> 452 ;
453 [label="gini = 0.0\nsamples = 6\nvalue = [6, 0]"] ;
447 -> 453 ;
454 [label="gini = 0.0\nsamples = 1\nvalue = [0, 1]"] ;
446 -> 454 ;
455 [label="gini = 0.0\nsamples = 1\nvalue = [0, 1]"] ;
445 -> 455 ;
456 [label="AVERAGE_CALL_DURATION <= 14.5\ngini = 0.346\nsamples = 9\nvalue = [2, 7]"] ;
442 -> 456 ;
457 [label="INCOME <= 58262.5\ngini = 0.219\nsamples = 8\nvalue = [1, 7]"] ;
456 -> 457 ;
458 [label="gini = 0.0\nsamples = 7\nvalue = [0, 7]"] ;
457 -> 458 ;
459 [label="gini = 0.0\nsamples = 1\nvalue = [1, 0]"] ;
457 -> 459 ;
460 [label="gini = 0.0\nsamples = 1\nvalue = [1, 0]"] ;
456 -> 460 ;
461 [label="gini = 0.0\nsamples = 2\nvalue = [0, 2]"] ;
439 -> 461 ;
462 [label="gini = 0.0\nsamples = 4\nvalue = [4, 0]"] ;
438 -> 462 ;
463 [label="REPORTED_SATISFACTION_very_unsat <= 0.5\ngini = 0.401\nsamples = 18\nvalue = [5, 13]"] ;
435 -> 463 ;
464 [label="AVERAGE_CALL_DURATION <= 11.5\ngini = 0.5\nsamples = 10\nvalue = [5, 5]"] ;
463 -> 464 ;
465 [label="CONSIDERING_CHANGE_OF_PLAN_no <= 0.5\ngini = 0.408\nsamples = 7\nvalue = [5, 2]"] ;
464 -> 465 ;
466 [label="gini = 0.0\nsamples = 4\nvalue = [4, 0]"] ;
465 -> 466 ;
467 [label="REPORTED_USAGE_LEVEL_little <= 0.5\ngini = 0.444\nsamples = 3\nvalue = [1, 2]"] ;
465 -> 467 ;
468 [label="gini = 0.0\nsamples = 1\nvalue = [1, 0]"] ;
467 -> 468 ;
469 [label="gini = 0.0\nsamples = 2\nvalue = [0, 2]"] ;
467 -> 469 ;
470 [label="gini = 0.0\nsamples = 3\nvalue = [0, 3]"] ;
464 -> 470 ;
471 [label="gini = 0.0\nsamples = 8\nvalue = [0, 8]"] ;
463 -> 471 ;
472 [label="HANDSET_PRICE <= 143.5\ngini = 0.346\nsamples = 18\nvalue = [14, 4]"] ;
434 -> 472 ;
473 [label="gini = 0.0\nsamples = 1\nvalue = [0, 1]"] ;
472 -> 473 ;
474 [label="INCOME <= 55720.5\ngini = 0.291\nsamples = 17\nvalue = [14, 3]"] ;
472 -> 474 ;
475 [label="HOUSE <= 479955.5\ngini = 0.219\nsamples = 16\nvalue = [14, 2]"] ;
474 -> 475 ;
476 [label="gini = 0.0\nsamples = 1\nvalue = [0, 1]"] ;
475 -> 476 ;
477 [label="INCOME <= 29763.0\ngini = 0.124\nsamples = 15\nvalue = [14, 1]"] ;
475 -> 477 ;
478 [label="INCOME <= 27473.5\ngini = 0.375\nsamples = 4\nvalue = [3, 1]"] ;
477 -> 478 ;
479 [label="gini = 0.0\nsamples = 3\nvalue = [3, 0]"] ;
478 -> 479 ;
480 [label="gini = 0.0\nsamples = 1\nvalue = [0, 1]"] ;
478 -> 480 ;
481 [label="gini = 0.0\nsamples = 11\nvalue = [11, 0]"] ;
477 -> 481 ;
482 [label="gini = 0.0\nsamples = 1\nvalue = [0, 1]"] ;
474 -> 482 ;
483 [label="gini = 0.0\nsamples = 14\nvalue = [14, 0]"] ;
351 -> 483 ;
484 [label="HANDSET_PRICE <= 349.5\ngini = 0.5\nsamples = 1225\nvalue = [603, 622]"] ;
4 -> 484 ;
485 [label="AVERAGE_CALL_DURATION <= 4.5\ngini = 0.489\nsamples = 372\nvalue = [158, 214]"] ;
484 -> 485 ;
486 [label="HOUSE <= 240229.5\ngini = 0.42\nsamples = 20\nvalue = [14, 6]"] ;
485 -> 486 ;
487 [label="INCOME <= 83779.5\ngini = 0.494\nsamples = 9\nvalue = [4, 5]"] ;
486 -> 487 ;
488 [label="gini = 0.0\nsamples = 3\nvalue = [0, 3]"] ;
487 -> 488 ;
489 [label="HOUSE <= 189839.0\ngini = 0.444\nsamples = 6\nvalue = [4, 2]"] ;
487 -> 489 ;
490 [label="gini = 0.0\nsamples = 3\nvalue = [3, 0]"] ;
489 -> 490 ;
491 [label="OVERAGE <= 63.5\ngini = 0.444\nsamples = 3\nvalue = [1, 2]"] ;
489 -> 491 ;
492 [label="gini = 0.0\nsamples = 2\nvalue = [0, 2]"] ;
491 -> 492 ;
493 [label="gini = 0.0\nsamples = 1\nvalue = [1, 0]"] ;
491 -> 493 ;
494 [label="OVER_15MINS_CALLS_PER_MONTH <= 4.5\ngini = 0.165\nsamples = 11\nvalue = [10, 1]"] ;
486 -> 494 ;
495 [label="gini = 0.0\nsamples = 10\nvalue = [10, 0]"] ;
494 -> 495 ;
496 [label="gini = 0.0\nsamples = 1\nvalue = [0, 1]"] ;
494 -> 496 ;
497 [label="HOUSE <= 163171.5\ngini = 0.483\nsamples = 352\nvalue = [144, 208]"] ;
485 -> 497 ;
498 [label="AVERAGE_CALL_DURATION <= 14.5\ngini = 0.133\nsamples = 14\nvalue = [1, 13]"] ;
497 -> 498 ;
499 [label="gini = 0.0\nsamples = 13\nvalue = [0, 13]"] ;
498 -> 499 ;
500 [label="gini = 0.0\nsamples = 1\nvalue = [1, 0]"] ;
498 -> 500 ;
501 [label="INCOME <= 129599.0\ngini = 0.488\nsamples = 338\nvalue = [143, 195]"] ;
497 -> 501 ;
502 [label="AVERAGE_CALL_DURATION <= 5.5\ngini = 0.492\nsamples = 323\nvalue = [141, 182]"] ;
501 -> 502 ;
503 [label="gini = 0.0\nsamples = 6\nvalue = [0, 6]"] ;
502 -> 503 ;
504 [label="OVER_15MINS_CALLS_PER_MONTH <= 0.5\ngini = 0.494\nsamples = 317\nvalue = [141, 176]"] ;
502 -> 504 ;
505 [label="HOUSE <= 554132.0\ngini = 0.496\nsamples = 79\nvalue = [43, 36]"] ;
504 -> 505 ;
506 [label="HOUSE <= 495766.5\ngini = 0.499\nsamples = 75\nvalue = [39, 36]"] ;
505 -> 506 ;
507 [label="COLLEGE <= 0.5\ngini = 0.489\nsamples = 66\nvalue = [38, 28]"] ;
506 -> 507 ;
508 [label="REPORTED_SATISFACTION_very_unsat <= 0.5\ngini = 0.412\nsamples = 31\nvalue = [22, 9]"] ;
507 -> 508 ;
509 [label="HOUSE <= 178982.0\ngini = 0.498\nsamples = 17\nvalue = [9, 8]"] ;
508 -> 509 ;
510 [label="gini = 0.0\nsamples = 3\nvalue = [0, 3]"] ;
509 -> 510 ;
511 [label="AVERAGE_CALL_DURATION <= 10.5\ngini = 0.459\nsamples = 14\nvalue = [9, 5]"] ;
509 -> 511 ;
512 [label="INCOME <= 85769.0\ngini = 0.408\nsamples = 7\nvalue = [2, 5]"] ;
511 -> 512 ;
513 [label="gini = 0.0\nsamples = 5\nvalue = [0, 5]"] ;
512 -> 513 ;
514 [label="gini = 0.0\nsamples = 2\nvalue = [2, 0]"] ;
512 -> 514 ;
515 [label="gini = 0.0\nsamples = 7\nvalue = [7, 0]"] ;
511 -> 515 ;
516 [label="HANDSET_PRICE <= 335.5\ngini = 0.133\nsamples = 14\nvalue = [13, 1]"] ;
508 -> 516 ;
517 [label="gini = 0.0\nsamples = 11\nvalue = [11, 0]"] ;
516 -> 517 ;
518 [label="CONSIDERING_CHANGE_OF_PLAN_considering <= 0.5\ngini = 0.444\nsamples = 3\nvalue = [2, 1]"] ;
516 -> 518 ;
519 [label="gini = 0.0\nsamples = 2\nvalue = [2, 0]"] ;
518 -> 519 ;
520 [label="gini = 0.0\nsamples = 1\nvalue = [0, 1]"] ;
518 -> 520 ;
521 [label="HANDSET_PRICE <= 315.5\ngini = 0.496\nsamples = 35\nvalue = [16, 19]"] ;
507 -> 521 ;
522 [label="REPORTED_USAGE_LEVEL_little <= 0.5\ngini = 0.486\nsamples = 24\nvalue = [14, 10]"] ;
521 -> 522 ;
523 [label="INCOME <= 80788.0\ngini = 0.459\nsamples = 14\nvalue = [5, 9]"] ;
522 -> 523 ;
524 [label="HANDSET_PRICE <= 269.5\ngini = 0.469\nsamples = 8\nvalue = [5, 3]"] ;
523 -> 524 ;
525 [label="HOUSE <= 440377.5\ngini = 0.375\nsamples = 4\nvalue = [1, 3]"] ;
524 -> 525 ;
526 [label="gini = 0.0\nsamples = 3\nvalue = [0, 3]"] ;
525 -> 526 ;
527 [label="gini = 0.0\nsamples = 1\nvalue = [1, 0]"] ;
525 -> 527 ;
528 [label="gini = 0.0\nsamples = 4\nvalue = [4, 0]"] ;
524 -> 528 ;
529 [label="gini = 0.0\nsamples = 6\nvalue = [0, 6]"] ;
523 -> 529 ;
530 [label="HOUSE <= 208213.5\ngini = 0.18\nsamples = 10\nvalue = [9, 1]"] ;
522 -> 530 ;
531 [label="gini = 0.0\nsamples = 1\nvalue = [0, 1]"] ;
530 -> 531 ;
532 [label="gini = 0.0\nsamples = 9\nvalue = [9, 0]"] ;
530 -> 532 ;
533 [label="REPORTED_USAGE_LEVEL_very_little <= 0.5\ngini = 0.298\nsamples = 11\nvalue = [2, 9]"] ;
521 -> 533 ;
534 [label="gini = 0.0\nsamples = 8\nvalue = [0, 8]"] ;
533 -> 534 ;
535 [label="REPORTED_SATISFACTION_very_unsat <= 0.5\ngini = 0.444\nsamples = 3\nvalue = [2, 1]"] ;
533 -> 535 ;
536 [label="gini = 0.0\nsamples = 1\nvalue = [0, 1]"] ;
535 -> 536 ;
537 [label="gini = 0.0\nsamples = 2\nvalue = [2, 0]"] ;
535 -> 537 ;
538 [label="REPORTED_USAGE_LEVEL_very_high <= 0.5\ngini = 0.198\nsamples = 9\nvalue = [1, 8]"] ;
506 -> 538 ;
539 [label="gini = 0.0\nsamples = 7\nvalue = [0, 7]"] ;
538 -> 539 ;
540 [label="REPORTED_SATISFACTION_very_sat <= 0.5\ngini = 0.5\nsamples = 2\nvalue = [1, 1]"] ;
538 -> 540 ;
541 [label="gini = 0.0\nsamples = 1\nvalue = [1, 0]"] ;
540 -> 541 ;
542 [label="gini = 0.0\nsamples = 1\nvalue = [0, 1]"] ;
540 -> 542 ;
543 [label="gini = 0.0\nsamples = 4\nvalue = [4, 0]"] ;
505 -> 543 ;
544 [label="HOUSE <= 187804.0\ngini = 0.484\nsamples = 238\nvalue = [98, 140]"] ;
504 -> 544 ;
545 [label="INCOME <= 97789.0\ngini = 0.455\nsamples = 20\nvalue = [13, 7]"] ;
544 -> 545 ;
546 [label="OVER_15MINS_CALLS_PER_MONTH <= 3.5\ngini = 0.401\nsamples = 18\nvalue = [13, 5]"] ;
545 -> 546 ;
547 [label="CONSIDERING_CHANGE_OF_PLAN_no <= 0.5\ngini = 0.26\nsamples = 13\nvalue = [11, 2]"] ;
546 -> 547 ;
548 [label="gini = 0.0\nsamples = 9\nvalue = [9, 0]"] ;
547 -> 548 ;
549 [label="HANDSET_PRICE <= 286.0\ngini = 0.5\nsamples = 4\nvalue = [2, 2]"] ;
547 -> 549 ;
550 [label="gini = 0.0\nsamples = 1\nvalue = [0, 1]"] ;
549 -> 550 ;
551 [label="AVERAGE_CALL_DURATION <= 14.0\ngini = 0.444\nsamples = 3\nvalue = [2, 1]"] ;
549 -> 551 ;
552 [label="gini = 0.0\nsamples = 2\nvalue = [2, 0]"] ;
551 -> 552 ;
553 [label="gini = 0.0\nsamples = 1\nvalue = [0, 1]"] ;
551 -> 553 ;
554 [label="HANDSET_PRICE <= 285.5\ngini = 0.48\nsamples = 5\nvalue = [2, 3]"] ;
546 -> 554 ;
555 [label="gini = 0.0\nsamples = 2\nvalue = [2, 0]"] ;
554 -> 555 ;
556 [label="gini = 0.0\nsamples = 3\nvalue = [0, 3]"] ;
554 -> 556 ;
557 [label="gini = 0.0\nsamples = 2\nvalue = [0, 2]"] ;
545 -> 557 ;
558 [label="AVERAGE_CALL_DURATION <= 12.5\ngini = 0.476\nsamples = 218\nvalue = [85, 133]"] ;
544 -> 558 ;
559 [label="HOUSE <= 199532.0\ngini = 0.496\nsamples = 131\nvalue = [60, 71]"] ;
558 -> 559 ;
560 [label="gini = 0.0\nsamples = 6\nvalue = [0, 6]"] ;
559 -> 560 ;
561 [label="INCOME <= 101044.0\ngini = 0.499\nsamples = 125\nvalue = [60, 65]"] ;
559 -> 561 ;
562 [label="OVERAGE <= 83.5\ngini = 0.497\nsamples = 121\nvalue = [56, 65]"] ;
561 -> 562 ;
563 [label="CONSIDERING_CHANGE_OF_PLAN_perhaps <= 0.5\ngini = 0.494\nsamples = 117\nvalue = [52, 65]"] ;
562 -> 563 ;
564 [label="CONSIDERING_CHANGE_OF_PLAN_never_thought <= 0.5\ngini = 0.497\nsamples = 110\nvalue = [51, 59]"] ;
563 -> 564 ;
565 [label="OVER_15MINS_CALLS_PER_MONTH <= 17.5\ngini = 0.5\nsamples = 97\nvalue = [48, 49]"] ;
564 -> 565 ;
566 [label="HANDSET_PRICE <= 300.0\ngini = 0.499\nsamples = 94\nvalue = [45, 49]"] ;
565 -> 566 ;
567 [label="OVERAGE <= 63.5\ngini = 0.475\nsamples = 49\nvalue = [19, 30]"] ;
566 -> 567 ;
568 [label="HOUSE <= 531118.0\ngini = 0.498\nsamples = 36\nvalue = [17, 19]"] ;
567 -> 568 ;
569 [label="REPORTED_SATISFACTION_sat <= 0.5\ngini = 0.495\nsamples = 31\nvalue = [17, 14]"] ;
568 -> 569 ;
570 [label="REPORTED_USAGE_LEVEL_high <= 0.5\ngini = 0.466\nsamples = 27\nvalue = [17, 10]"] ;
569 -> 570 ;
571 [label="INCOME <= 96769.0\ngini = 0.413\nsamples = 24\nvalue = [17, 7]"] ;
570 -> 571 ;
572 [label="REPORTED_USAGE_LEVEL_little <= 0.5\ngini = 0.332\nsamples = 19\nvalue = [15, 4]"] ;
571 -> 572 ;
573 [label="HANDSET_PRICE <= 288.5\ngini = 0.153\nsamples = 12\nvalue = [11, 1]"] ;
572 -> 573 ;
574 [label="gini = 0.0\nsamples = 10\nvalue = [10, 0]"] ;
573 -> 574 ;
575 [label="HANDSET_PRICE <= 291.0\ngini = 0.5\nsamples = 2\nvalue = [1, 1]"] ;
573 -> 575 ;
576 [label="gini = 0.0\nsamples = 1\nvalue = [0, 1]"] ;
575 -> 576 ;
577 [label="gini = 0.0\nsamples = 1\nvalue = [1, 0]"] ;
575 -> 577 ;
578 [label="OVERAGE <= 57.5\ngini = 0.49\nsamples = 7\nvalue = [4, 3]"] ;
572 -> 578 ;
579 [label="COLLEGE <= 0.5\ngini = 0.375\nsamples = 4\nvalue = [1, 3]"] ;
578 -> 579 ;
580 [label="gini = 0.0\nsamples = 3\nvalue = [0, 3]"] ;
579 -> 580 ;
581 [label="gini = 0.0\nsamples = 1\nvalue = [1, 0]"] ;
579 -> 581 ;
582 [label="gini = 0.0\nsamples = 3\nvalue = [3, 0]"] ;
578 -> 582 ;
583 [label="REPORTED_SATISFACTION_very_unsat <= 0.5\ngini = 0.48\nsamples = 5\nvalue = [2, 3]"] ;
571 -> 583 ;
584 [label="gini = 0.0\nsamples = 2\nvalue = [2, 0]"] ;
583 -> 584 ;
585 [label="gini = 0.0\nsamples = 3\nvalue = [0, 3]"] ;
583 -> 585 ;
586 [label="gini = 0.0\nsamples = 3\nvalue = [0, 3]"] ;
570 -> 586 ;
587 [label="gini = 0.0\nsamples = 4\nvalue = [0, 4]"] ;
569 -> 587 ;
588 [label="gini = 0.0\nsamples = 5\nvalue = [0, 5]"] ;
568 -> 588 ;
589 [label="OVERAGE <= 79.0\ngini = 0.26\nsamples = 13\nvalue = [2, 11]"] ;
567 -> 589 ;
590 [label="INCOME <= 65981.0\ngini = 0.153\nsamples = 12\nvalue = [1, 11]"] ;
589 -> 590 ;
591 [label="REPORTED_USAGE_LEVEL_little <= 0.5\ngini = 0.5\nsamples = 2\nvalue = [1, 1]"] ;
590 -> 591 ;
592 [label="gini = 0.0\nsamples = 1\nvalue = [0, 1]"] ;
591 -> 592 ;
593 [label="gini = 0.0\nsamples = 1\nvalue = [1, 0]"] ;
591 -> 593 ;
594 [label="gini = 0.0\nsamples = 10\nvalue = [0, 10]"] ;
590 -> 594 ;
595 [label="gini = 0.0\nsamples = 1\nvalue = [1, 0]"] ;
589 -> 595 ;
596 [label="HANDSET_PRICE <= 318.5\ngini = 0.488\nsamples = 45\nvalue = [26, 19]"] ;
566 -> 596 ;
597 [label="OVERAGE <= 78.0\ngini = 0.245\nsamples = 14\nvalue = [12, 2]"] ;
596 -> 597 ;
598 [label="INCOME <= 65167.0\ngini = 0.142\nsamples = 13\nvalue = [12, 1]"] ;
597 -> 598 ;
599 [label="gini = 0.0\nsamples = 1\nvalue = [0, 1]"] ;
598 -> 599 ;
600 [label="gini = 0.0\nsamples = 12\nvalue = [12, 0]"] ;
598 -> 600 ;
601 [label="gini = 0.0\nsamples = 1\nvalue = [0, 1]"] ;
597 -> 601 ;
602 [label="REPORTED_SATISFACTION_very_sat <= 0.5\ngini = 0.495\nsamples = 31\nvalue = [14, 17]"] ;
596 -> 602 ;
603 [label="INCOME <= 78616.0\ngini = 0.461\nsamples = 25\nvalue = [9, 16]"] ;
602 -> 603 ;
604 [label="HOUSE <= 476327.0\ngini = 0.498\nsamples = 15\nvalue = [8, 7]"] ;
603 -> 604 ;
605 [label="INCOME <= 73126.5\ngini = 0.42\nsamples = 10\nvalue = [7, 3]"] ;
604 -> 605 ;
606 [label="CONSIDERING_CHANGE_OF_PLAN_considering <= 0.5\ngini = 0.5\nsamples = 6\nvalue = [3, 3]"] ;
605 -> 606 ;
607 [label="gini = 0.0\nsamples = 2\nvalue = [0, 2]"] ;
606 -> 607 ;
608 [label="OVERAGE <= 70.5\ngini = 0.375\nsamples = 4\nvalue = [3, 1]"] ;
606 -> 608 ;
609 [label="gini = 0.0\nsamples = 3\nvalue = [3, 0]"] ;
608 -> 609 ;
610 [label="gini = 0.0\nsamples = 1\nvalue = [0, 1]"] ;
608 -> 610 ;
611 [label="gini = 0.0\nsamples = 4\nvalue = [4, 0]"] ;
605 -> 611 ;
612 [label="HOUSE <= 525005.5\ngini = 0.32\nsamples = 5\nvalue = [1, 4]"] ;
604 -> 612 ;
613 [label="gini = 0.0\nsamples = 4\nvalue = [0, 4]"] ;
612 -> 613 ;
614 [label="gini = 0.0\nsamples = 1\nvalue = [1, 0]"] ;
612 -> 614 ;
615 [label="HOUSE <= 472448.0\ngini = 0.18\nsamples = 10\nvalue = [1, 9]"] ;
603 -> 615 ;
616 [label="gini = 0.0\nsamples = 9\nvalue = [0, 9]"] ;
615 -> 616 ;
617 [label="gini = 0.0\nsamples = 1\nvalue = [1, 0]"] ;
615 -> 617 ;
618 [label="REPORTED_USAGE_LEVEL_very_little <= 0.5\ngini = 0.278\nsamples = 6\nvalue = [5, 1]"] ;
602 -> 618 ;
619 [label="gini = 0.0\nsamples = 5\nvalue = [5, 0]"] ;
618 -> 619 ;
620 [label="gini = 0.0\nsamples = 1\nvalue = [0, 1]"] ;
618 -> 620 ;
621 [label="gini = 0.0\nsamples = 3\nvalue = [3, 0]"] ;
565 -> 621 ;
622 [label="REPORTED_USAGE_LEVEL_high <= 0.5\ngini = 0.355\nsamples = 13\nvalue = [3, 10]"] ;
564 -> 622 ;
623 [label="OVER_15MINS_CALLS_PER_MONTH <= 2.0\ngini = 0.278\nsamples = 12\nvalue = [2, 10]"] ;
622 -> 623 ;
624 [label="INCOME <= 87188.0\ngini = 0.5\nsamples = 2\nvalue = [1, 1]"] ;
623 -> 624 ;
625 [label="gini = 0.0\nsamples = 1\nvalue = [1, 0]"] ;
624 -> 625 ;
626 [label="gini = 0.0\nsamples = 1\nvalue = [0, 1]"] ;
624 -> 626 ;
627 [label="REPORTED_SATISFACTION_very_sat <= 0.5\ngini = 0.18\nsamples = 10\nvalue = [1, 9]"] ;
623 -> 627 ;
628 [label="gini = 0.0\nsamples = 8\nvalue = [0, 8]"] ;
627 -> 628 ;
629 [label="OVERAGE <= 38.5\ngini = 0.5\nsamples = 2\nvalue = [1, 1]"] ;
627 -> 629 ;
630 [label="gini = 0.0\nsamples = 1\nvalue = [0, 1]"] ;
629 -> 630 ;
631 [label="gini = 0.0\nsamples = 1\nvalue = [1, 0]"] ;
629 -> 631 ;
632 [label="gini = 0.0\nsamples = 1\nvalue = [1, 0]"] ;
622 -> 632 ;
633 [label="INCOME <= 71876.5\ngini = 0.245\nsamples = 7\nvalue = [1, 6]"] ;
563 -> 633 ;
634 [label="gini = 0.0\nsamples = 6\nvalue = [0, 6]"] ;
633 -> 634 ;
635 [label="gini = 0.0\nsamples = 1\nvalue = [1, 0]"] ;
633 -> 635 ;
636 [label="gini = 0.0\nsamples = 4\nvalue = [4, 0]"] ;
562 -> 636 ;
637 [label="gini = 0.0\nsamples = 4\nvalue = [4, 0]"] ;
561 -> 637 ;
638 [label="HOUSE <= 192969.0\ngini = 0.41\nsamples = 87\nvalue = [25, 62]"] ;
558 -> 638 ;
639 [label="gini = 0.0\nsamples = 4\nvalue = [4, 0]"] ;
638 -> 639 ;
640 [label="INCOME <= 83681.0\ngini = 0.378\nsamples = 83\nvalue = [21, 62]"] ;
638 -> 640 ;
641 [label="INCOME <= 80744.0\ngini = 0.466\nsamples = 46\nvalue = [17, 29]"] ;
640 -> 641 ;
642 [label="REPORTED_USAGE_LEVEL_little <= 0.5\ngini = 0.427\nsamples = 42\nvalue = [13, 29]"] ;
641 -> 642 ;
643 [label="INCOME <= 62068.5\ngini = 0.311\nsamples = 26\nvalue = [5, 21]"] ;
642 -> 643 ;
644 [label="gini = 0.0\nsamples = 1\nvalue = [1, 0]"] ;
643 -> 644 ;
645 [label="INCOME <= 75626.0\ngini = 0.269\nsamples = 25\nvalue = [4, 21]"] ;
643 -> 645 ;
646 [label="HOUSE <= 517128.0\ngini = 0.111\nsamples = 17\nvalue = [1, 16]"] ;
645 -> 646 ;
647 [label="gini = 0.0\nsamples = 14\nvalue = [0, 14]"] ;
646 -> 647 ;
648 [label="COLLEGE <= 0.5\ngini = 0.444\nsamples = 3\nvalue = [1, 2]"] ;
646 -> 648 ;
649 [label="gini = 0.0\nsamples = 1\nvalue = [1, 0]"] ;
648 -> 649 ;
650 [label="gini = 0.0\nsamples = 2\nvalue = [0, 2]"] ;
648 -> 650 ;
651 [label="INCOME <= 77315.5\ngini = 0.469\nsamples = 8\nvalue = [3, 5]"] ;
645 -> 651 ;
652 [label="OVER_15MINS_CALLS_PER_MONTH <= 4.5\ngini = 0.375\nsamples = 4\nvalue = [3, 1]"] ;
651 -> 652 ;
653 [label="gini = 0.0\nsamples = 3\nvalue = [3, 0]"] ;
652 -> 653 ;
654 [label="gini = 0.0\nsamples = 1\nvalue = [0, 1]"] ;
652 -> 654 ;
655 [label="gini = 0.0\nsamples = 4\nvalue = [0, 4]"] ;
651 -> 655 ;
656 [label="HANDSET_PRICE <= 294.0\ngini = 0.5\nsamples = 16\nvalue = [8, 8]"] ;
642 -> 656 ;
657 [label="INCOME <= 65484.0\ngini = 0.32\nsamples = 5\nvalue = [4, 1]"] ;
656 -> 657 ;
658 [label="gini = 0.0\nsamples = 1\nvalue = [0, 1]"] ;
657 -> 658 ;
659 [label="gini = 0.0\nsamples = 4\nvalue = [4, 0]"] ;
657 -> 659 ;
660 [label="AVERAGE_CALL_DURATION <= 13.5\ngini = 0.463\nsamples = 11\nvalue = [4, 7]"] ;
656 -> 660 ;
661 [label="HANDSET_PRICE <= 316.5\ngini = 0.48\nsamples = 5\nvalue = [3, 2]"] ;
660 -> 661 ;
662 [label="gini = 0.0\nsamples = 2\nvalue = [0, 2]"] ;
661 -> 662 ;
663 [label="gini = 0.0\nsamples = 3\nvalue = [3, 0]"] ;
661 -> 663 ;
664 [label="REPORTED_SATISFACTION_sat <= 0.5\ngini = 0.278\nsamples = 6\nvalue = [1, 5]"] ;
660 -> 664 ;
665 [label="gini = 0.0\nsamples = 5\nvalue = [0, 5]"] ;
664 -> 665 ;
666 [label="gini = 0.0\nsamples = 1\nvalue = [1, 0]"] ;
664 -> 666 ;
667 [label="gini = 0.0\nsamples = 4\nvalue = [4, 0]"] ;
641 -> 667 ;
668 [label="REPORTED_USAGE_LEVEL_very_little <= 0.5\ngini = 0.193\nsamples = 37\nvalue = [4, 33]"] ;
640 -> 668 ;
669 [label="INCOME <= 114082.5\ngini = 0.067\nsamples = 29\nvalue = [1, 28]"] ;
668 -> 669 ;
670 [label="gini = 0.0\nsamples = 27\nvalue = [0, 27]"] ;
669 -> 670 ;
671 [label="INCOME <= 117082.0\ngini = 0.5\nsamples = 2\nvalue = [1, 1]"] ;
669 -> 671 ;
672 [label="gini = 0.0\nsamples = 1\nvalue = [1, 0]"] ;
671 -> 672 ;
673 [label="gini = 0.0\nsamples = 1\nvalue = [0, 1]"] ;
671 -> 673 ;
674 [label="OVERAGE <= 49.5\ngini = 0.469\nsamples = 8\nvalue = [3, 5]"] ;
668 -> 674 ;
675 [label="HANDSET_PRICE <= 273.5\ngini = 0.375\nsamples = 4\nvalue = [3, 1]"] ;
674 -> 675 ;
676 [label="gini = 0.0\nsamples = 1\nvalue = [0, 1]"] ;
675 -> 676 ;
677 [label="gini = 0.0\nsamples = 3\nvalue = [3, 0]"] ;
675 -> 677 ;
678 [label="gini = 0.0\nsamples = 4\nvalue = [0, 4]"] ;
674 -> 678 ;
679 [label="REPORTED_USAGE_LEVEL_very_high <= 0.5\ngini = 0.231\nsamples = 15\nvalue = [2, 13]"] ;
501 -> 679 ;
680 [label="gini = 0.0\nsamples = 10\nvalue = [0, 10]"] ;
679 -> 680 ;
681 [label="HANDSET_PRICE <= 199.0\ngini = 0.48\nsamples = 5\nvalue = [2, 3]"] ;
679 -> 681 ;
682 [label="gini = 0.0\nsamples = 3\nvalue = [0, 3]"] ;
681 -> 682 ;
683 [label="gini = 0.0\nsamples = 2\nvalue = [2, 0]"] ;
681 -> 683 ;
684 [label="HANDSET_PRICE <= 361.5\ngini = 0.499\nsamples = 853\nvalue = [445, 408]"] ;
484 -> 684 ;
685 [label="REPORTED_SATISFACTION_sat <= 0.5\ngini = 0.37\nsamples = 49\nvalue = [37, 12]"] ;
684 -> 685 ;
686 [label="HOUSE <= 552859.5\ngini = 0.335\nsamples = 47\nvalue = [37, 10]"] ;
685 -> 686 ;
687 [label="OVER_15MINS_CALLS_PER_MONTH <= 15.5\ngini = 0.292\nsamples = 45\nvalue = [37, 8]"] ;
686 -> 687 ;
688 [label="HOUSE <= 221087.5\ngini = 0.268\nsamples = 44\nvalue = [37, 7]"] ;
687 -> 688 ;
689 [label="HOUSE <= 184774.0\ngini = 0.463\nsamples = 11\nvalue = [7, 4]"] ;
688 -> 689 ;
690 [label="gini = 0.0\nsamples = 5\nvalue = [5, 0]"] ;
689 -> 690 ;
691 [label="HANDSET_PRICE <= 358.5\ngini = 0.444\nsamples = 6\nvalue = [2, 4]"] ;
689 -> 691 ;
692 [label="gini = 0.0\nsamples = 3\nvalue = [0, 3]"] ;
691 -> 692 ;
693 [label="HOUSE <= 196231.0\ngini = 0.444\nsamples = 3\nvalue = [2, 1]"] ;
691 -> 693 ;
694 [label="gini = 0.0\nsamples = 1\nvalue = [0, 1]"] ;
693 -> 694 ;
695 [label="gini = 0.0\nsamples = 2\nvalue = [2, 0]"] ;
693 -> 695 ;
696 [label="HANDSET_PRICE <= 351.5\ngini = 0.165\nsamples = 33\nvalue = [30, 3]"] ;
688 -> 696 ;
697 [label="REPORTED_USAGE_LEVEL_very_high <= 0.5\ngini = 0.444\nsamples = 6\nvalue = [4, 2]"] ;
696 -> 697 ;
698 [label="gini = 0.0\nsamples = 4\nvalue = [4, 0]"] ;
697 -> 698 ;
699 [label="gini = 0.0\nsamples = 2\nvalue = [0, 2]"] ;
697 -> 699 ;
700 [label="REPORTED_USAGE_LEVEL_high <= 0.5\ngini = 0.071\nsamples = 27\nvalue = [26, 1]"] ;
696 -> 700 ;
701 [label="gini = 0.0\nsamples = 24\nvalue = [24, 0]"] ;
700 -> 701 ;
702 [label="HOUSE <= 316874.0\ngini = 0.444\nsamples = 3\nvalue = [2, 1]"] ;
700 -> 702 ;
703 [label="gini = 0.0\nsamples = 2\nvalue = [2, 0]"] ;
702 -> 703 ;
704 [label="gini = 0.0\nsamples = 1\nvalue = [0, 1]"] ;
702 -> 704 ;
705 [label="gini = 0.0\nsamples = 1\nvalue = [0, 1]"] ;
687 -> 705 ;
706 [label="gini = 0.0\nsamples = 2\nvalue = [0, 2]"] ;
686 -> 706 ;
707 [label="gini = 0.0\nsamples = 2\nvalue = [0, 2]"] ;
685 -> 707 ;
708 [label="HANDSET_PRICE <= 571.5\ngini = 0.5\nsamples = 804\nvalue = [408, 396]"] ;
684 -> 708 ;
709 [label="HOUSE <= 249450.5\ngini = 0.496\nsamples = 359\nvalue = [163, 196]"] ;
708 -> 709 ;
710 [label="HANDSET_PRICE <= 370.5\ngini = 0.492\nsamples = 121\nvalue = [68, 53]"] ;
709 -> 710 ;
711 [label="REPORTED_USAGE_LEVEL_very_high <= 0.5\ngini = 0.165\nsamples = 11\nvalue = [1, 10]"] ;
710 -> 711 ;
712 [label="gini = 0.0\nsamples = 9\nvalue = [0, 9]"] ;
711 -> 712 ;
713 [label="INCOME <= 92038.0\ngini = 0.5\nsamples = 2\nvalue = [1, 1]"] ;
711 -> 713 ;
714 [label="gini = 0.0\nsamples = 1\nvalue = [1, 0]"] ;
713 -> 714 ;
715 [label="gini = 0.0\nsamples = 1\nvalue = [0, 1]"] ;
713 -> 715 ;
716 [label="REPORTED_SATISFACTION_very_unsat <= 0.5\ngini = 0.476\nsamples = 110\nvalue = [67, 43]"] ;
710 -> 716 ;
717 [label="OVER_15MINS_CALLS_PER_MONTH <= 4.5\ngini = 0.499\nsamples = 69\nvalue = [36, 33]"] ;
716 -> 717 ;
718 [label="COLLEGE <= 0.5\ngini = 0.496\nsamples = 53\nvalue = [24, 29]"] ;
717 -> 718 ;
719 [label="HOUSE <= 239766.5\ngini = 0.485\nsamples = 29\nvalue = [17, 12]"] ;
718 -> 719 ;
720 [label="HANDSET_PRICE <= 561.0\ngini = 0.444\nsamples = 24\nvalue = [16, 8]"] ;
719 -> 720 ;
721 [label="HANDSET_PRICE <= 457.0\ngini = 0.397\nsamples = 22\nvalue = [16, 6]"] ;
720 -> 721 ;
722 [label="AVERAGE_CALL_DURATION <= 13.5\ngini = 0.469\nsamples = 16\nvalue = [10, 6]"] ;
721 -> 722 ;
723 [label="INCOME <= 139137.5\ngini = 0.5\nsamples = 12\nvalue = [6, 6]"] ;
722 -> 723 ;
724 [label="HANDSET_PRICE <= 430.0\ngini = 0.48\nsamples = 10\nvalue = [6, 4]"] ;
723 -> 724 ;
725 [label="HOUSE <= 225211.0\ngini = 0.375\nsamples = 8\nvalue = [6, 2]"] ;
724 -> 725 ;
726 [label="AVERAGE_CALL_DURATION <= 12.0\ngini = 0.245\nsamples = 7\nvalue = [6, 1]"] ;
725 -> 726 ;
727 [label="gini = 0.0\nsamples = 5\nvalue = [5, 0]"] ;
726 -> 727 ;
728 [label="OVERAGE <= 30.5\ngini = 0.5\nsamples = 2\nvalue = [1, 1]"] ;
726 -> 728 ;
729 [label="gini = 0.0\nsamples = 1\nvalue = [1, 0]"] ;
728 -> 729 ;
730 [label="gini = 0.0\nsamples = 1\nvalue = [0, 1]"] ;
728 -> 730 ;
731 [label="gini = 0.0\nsamples = 1\nvalue = [0, 1]"] ;
725 -> 731 ;
732 [label="gini = 0.0\nsamples = 2\nvalue = [0, 2]"] ;
724 -> 732 ;
733 [label="gini = 0.0\nsamples = 2\nvalue = [0, 2]"] ;
723 -> 733 ;
734 [label="gini = 0.0\nsamples = 4\nvalue = [4, 0]"] ;
722 -> 734 ;
735 [label="gini = 0.0\nsamples = 6\nvalue = [6, 0]"] ;
721 -> 735 ;
736 [label="gini = 0.0\nsamples = 2\nvalue = [0, 2]"] ;
720 -> 736 ;
737 [label="HOUSE <= 247892.0\ngini = 0.32\nsamples = 5\nvalue = [1, 4]"] ;
719 -> 737 ;
738 [label="gini = 0.0\nsamples = 4\nvalue = [0, 4]"] ;
737 -> 738 ;
739 [label="gini = 0.0\nsamples = 1\nvalue = [1, 0]"] ;
737 -> 739 ;
740 [label="REPORTED_USAGE_LEVEL_little <= 0.5\ngini = 0.413\nsamples = 24\nvalue = [7, 17]"] ;
718 -> 740 ;
741 [label="CONSIDERING_CHANGE_OF_PLAN_considering <= 0.5\ngini = 0.475\nsamples = 18\nvalue = [7, 11]"] ;
740 -> 741 ;
742 [label="HANDSET_PRICE <= 421.0\ngini = 0.5\nsamples = 12\nvalue = [6, 6]"] ;
741 -> 742 ;
743 [label="AVERAGE_CALL_DURATION <= 14.5\ngini = 0.32\nsamples = 5\nvalue = [4, 1]"] ;
742 -> 743 ;
744 [label="gini = 0.0\nsamples = 4\nvalue = [4, 0]"] ;
743 -> 744 ;
745 [label="gini = 0.0\nsamples = 1\nvalue = [0, 1]"] ;
743 -> 745 ;
746 [label="AVERAGE_CALL_DURATION <= 9.5\ngini = 0.408\nsamples = 7\nvalue = [2, 5]"] ;
742 -> 746 ;
747 [label="REPORTED_SATISFACTION_sat <= 0.5\ngini = 0.444\nsamples = 3\nvalue = [2, 1]"] ;
746 -> 747 ;
748 [label="gini = 0.0\nsamples = 2\nvalue = [2, 0]"] ;
747 -> 748 ;
749 [label="gini = 0.0\nsamples = 1\nvalue = [0, 1]"] ;
747 -> 749 ;
750 [label="gini = 0.0\nsamples = 4\nvalue = [0, 4]"] ;
746 -> 750 ;
751 [label="HANDSET_PRICE <= 486.0\ngini = 0.278\nsamples = 6\nvalue = [1, 5]"] ;
741 -> 751 ;
752 [label="gini = 0.0\nsamples = 5\nvalue = [0, 5]"] ;
751 -> 752 ;
753 [label="gini = 0.0\nsamples = 1\nvalue = [1, 0]"] ;
751 -> 753 ;
754 [label="gini = 0.0\nsamples = 6\nvalue = [0, 6]"] ;
740 -> 754 ;
755 [label="HANDSET_PRICE <= 550.5\ngini = 0.375\nsamples = 16\nvalue = [12, 4]"] ;
717 -> 755 ;
756 [label="CONSIDERING_CHANGE_OF_PLAN_no <= 0.5\ngini = 0.153\nsamples = 12\nvalue = [11, 1]"] ;
755 -> 756 ;
757 [label="gini = 0.0\nsamples = 10\nvalue = [10, 0]"] ;
756 -> 757 ;
758 [label="REPORTED_SATISFACTION_very_sat <= 0.5\ngini = 0.5\nsamples = 2\nvalue = [1, 1]"] ;
756 -> 758 ;
759 [label="gini = 0.0\nsamples = 1\nvalue = [0, 1]"] ;
758 -> 759 ;
760 [label="gini = 0.0\nsamples = 1\nvalue = [1, 0]"] ;
758 -> 760 ;
761 [label="HANDSET_PRICE <= 564.0\ngini = 0.375\nsamples = 4\nvalue = [1, 3]"] ;
755 -> 761 ;
762 [label="gini = 0.0\nsamples = 3\nvalue = [0, 3]"] ;
761 -> 762 ;
763 [label="gini = 0.0\nsamples = 1\nvalue = [1, 0]"] ;
761 -> 763 ;
764 [label="OVER_15MINS_CALLS_PER_MONTH <= 12.5\ngini = 0.369\nsamples = 41\nvalue = [31, 10]"] ;
716 -> 764 ;
765 [label="INCOME <= 121308.0\ngini = 0.326\nsamples = 39\nvalue = [31, 8]"] ;
764 -> 765 ;
766 [label="OVER_15MINS_CALLS_PER_MONTH <= 0.5\ngini = 0.1\nsamples = 19\nvalue = [18, 1]"] ;
765 -> 766 ;
767 [label="HOUSE <= 194170.0\ngini = 0.32\nsamples = 5\nvalue = [4, 1]"] ;
766 -> 767 ;
768 [label="gini = 0.0\nsamples = 4\nvalue = [4, 0]"] ;
767 -> 768 ;
769 [label="gini = 0.0\nsamples = 1\nvalue = [0, 1]"] ;
767 -> 769 ;
770 [label="gini = 0.0\nsamples = 14\nvalue = [14, 0]"] ;
766 -> 770 ;
771 [label="REPORTED_USAGE_LEVEL_very_high <= 0.5\ngini = 0.455\nsamples = 20\nvalue = [13, 7]"] ;
765 -> 771 ;
772 [label="OVER_15MINS_CALLS_PER_MONTH <= 2.0\ngini = 0.401\nsamples = 18\nvalue = [13, 5]"] ;
771 -> 772 ;
773 [label="INCOME <= 125511.0\ngini = 0.18\nsamples = 10\nvalue = [9, 1]"] ;
772 -> 773 ;
774 [label="gini = 0.0\nsamples = 1\nvalue = [0, 1]"] ;
773 -> 774 ;
775 [label="gini = 0.0\nsamples = 9\nvalue = [9, 0]"] ;
773 -> 775 ;
776 [label="HANDSET_PRICE <= 480.0\ngini = 0.5\nsamples = 8\nvalue = [4, 4]"] ;
772 -> 776 ;
777 [label="HANDSET_PRICE <= 437.0\ngini = 0.32\nsamples = 5\nvalue = [4, 1]"] ;
776 -> 777 ;
778 [label="gini = 0.0\nsamples = 1\nvalue = [0, 1]"] ;
777 -> 778 ;
779 [label="gini = 0.0\nsamples = 4\nvalue = [4, 0]"] ;
777 -> 779 ;
780 [label="gini = 0.0\nsamples = 3\nvalue = [0, 3]"] ;
776 -> 780 ;
781 [label="gini = 0.0\nsamples = 2\nvalue = [0, 2]"] ;
771 -> 781 ;
782 [label="gini = 0.0\nsamples = 2\nvalue = [0, 2]"] ;
764 -> 782 ;
783 [label="OVER_15MINS_CALLS_PER_MONTH <= 21.5\ngini = 0.48\nsamples = 238\nvalue = [95, 143]"] ;
709 -> 783 ;
784 [label="HOUSE <= 582931.5\ngini = 0.472\nsamples = 230\nvalue = [88, 142]"] ;
783 -> 784 ;
785 [label="HOUSE <= 553265.5\ngini = 0.463\nsamples = 220\nvalue = [80, 140]"] ;
784 -> 785 ;
786 [label="HOUSE <= 259551.0\ngini = 0.476\nsamples = 202\nvalue = [79, 123]"] ;
785 -> 786 ;
787 [label="HANDSET_PRICE <= 569.5\ngini = 0.208\nsamples = 17\nvalue = [2, 15]"] ;
786 -> 787 ;
788 [label="INCOME <= 145364.0\ngini = 0.117\nsamples = 16\nvalue = [1, 15]"] ;
787 -> 788 ;
789 [label="gini = 0.0\nsamples = 13\nvalue = [0, 13]"] ;
788 -> 789 ;
790 [label="AVERAGE_CALL_DURATION <= 9.5\ngini = 0.444\nsamples = 3\nvalue = [1, 2]"] ;
788 -> 790 ;
791 [label="gini = 0.0\nsamples = 1\nvalue = [1, 0]"] ;
790 -> 791 ;
792 [label="gini = 0.0\nsamples = 2\nvalue = [0, 2]"] ;
790 -> 792 ;
793 [label="gini = 0.0\nsamples = 1\nvalue = [1, 0]"] ;
787 -> 793 ;
794 [label="OVERAGE <= 79.5\ngini = 0.486\nsamples = 185\nvalue = [77, 108]"] ;
786 -> 794 ;
795 [label="HANDSET_PRICE <= 558.0\ngini = 0.48\nsamples = 180\nvalue = [72, 108]"] ;
794 -> 795 ;
796 [label="REPORTED_USAGE_LEVEL_very_little <= 0.5\ngini = 0.487\nsamples = 169\nvalue = [71, 98]"] ;
795 -> 796 ;
797 [label="HANDSET_PRICE <= 425.0\ngini = 0.497\nsamples = 127\nvalue = [59, 68]"] ;
796 -> 797 ;
798 [label="INCOME <= 78269.5\ngini = 0.46\nsamples = 64\nvalue = [23, 41]"] ;
797 -> 798 ;
799 [label="INCOME <= 71093.5\ngini = 0.496\nsamples = 22\nvalue = [12, 10]"] ;
798 -> 799 ;
800 [label="CONSIDERING_CHANGE_OF_PLAN_considering <= 0.5\ngini = 0.397\nsamples = 11\nvalue = [3, 8]"] ;
799 -> 800 ;
801 [label="AVERAGE_CALL_DURATION <= 12.0\ngini = 0.48\nsamples = 5\nvalue = [3, 2]"] ;
800 -> 801 ;
802 [label="gini = 0.0\nsamples = 3\nvalue = [3, 0]"] ;
801 -> 802 ;
803 [label="gini = 0.0\nsamples = 2\nvalue = [0, 2]"] ;
801 -> 803 ;
804 [label="gini = 0.0\nsamples = 6\nvalue = [0, 6]"] ;
800 -> 804 ;
805 [label="OVERAGE <= 76.0\ngini = 0.298\nsamples = 11\nvalue = [9, 2]"] ;
799 -> 805 ;
806 [label="HANDSET_PRICE <= 386.0\ngini = 0.18\nsamples = 10\nvalue = [9, 1]"] ;
805 -> 806 ;
807 [label="gini = 0.0\nsamples = 8\nvalue = [8, 0]"] ;
806 -> 807 ;
808 [label="INCOME <= 76708.0\ngini = 0.5\nsamples = 2\nvalue = [1, 1]"] ;
806 -> 808 ;
809 [label="gini = 0.0\nsamples = 1\nvalue = [0, 1]"] ;
808 -> 809 ;
810 [label="gini = 0.0\nsamples = 1\nvalue = [1, 0]"] ;
808 -> 810 ;
811 [label="gini = 0.0\nsamples = 1\nvalue = [0, 1]"] ;
805 -> 811 ;
812 [label="HOUSE <= 281849.5\ngini = 0.387\nsamples = 42\nvalue = [11, 31]"] ;
798 -> 812 ;
813 [label="OVERAGE <= 68.0\ngini = 0.32\nsamples = 5\nvalue = [4, 1]"] ;
812 -> 813 ;
814 [label="gini = 0.0\nsamples = 4\nvalue = [4, 0]"] ;
813 -> 814 ;
815 [label="gini = 0.0\nsamples = 1\nvalue = [0, 1]"] ;
813 -> 815 ;
816 [label="OVERAGE <= 72.0\ngini = 0.307\nsamples = 37\nvalue = [7, 30]"] ;
812 -> 816 ;
817 [label="REPORTED_USAGE_LEVEL_very_high <= 0.5\ngini = 0.278\nsamples = 36\nvalue = [6, 30]"] ;
816 -> 817 ;
818 [label="AVERAGE_CALL_DURATION <= 14.5\ngini = 0.397\nsamples = 22\nvalue = [6, 16]"] ;
817 -> 818 ;
819 [label="INCOME <= 136166.5\ngini = 0.32\nsamples = 20\nvalue = [4, 16]"] ;
818 -> 819 ;
820 [label="HANDSET_PRICE <= 388.0\ngini = 0.266\nsamples = 19\nvalue = [3, 16]"] ;
819 -> 820 ;
821 [label="gini = 0.0\nsamples = 9\nvalue = [0, 9]"] ;
820 -> 821 ;
822 [label="INCOME <= 111077.5\ngini = 0.42\nsamples = 10\nvalue = [3, 7]"] ;
820 -> 822 ;
823 [label="OVERAGE <= 34.5\ngini = 0.5\nsamples = 6\nvalue = [3, 3]"] ;
822 -> 823 ;
824 [label="HOUSE <= 326401.0\ngini = 0.375\nsamples = 4\nvalue = [3, 1]"] ;
823 -> 824 ;
825 [label="gini = 0.0\nsamples = 1\nvalue = [0, 1]"] ;
824 -> 825 ;
826 [label="gini = 0.0\nsamples = 3\nvalue = [3, 0]"] ;
824 -> 826 ;
827 [label="gini = 0.0\nsamples = 2\nvalue = [0, 2]"] ;
823 -> 827 ;
828 [label="gini = 0.0\nsamples = 4\nvalue = [0, 4]"] ;
822 -> 828 ;
829 [label="gini = 0.0\nsamples = 1\nvalue = [1, 0]"] ;
819 -> 829 ;
830 [label="gini = 0.0\nsamples = 2\nvalue = [2, 0]"] ;
818 -> 830 ;
831 [label="gini = 0.0\nsamples = 14\nvalue = [0, 14]"] ;
817 -> 831 ;
832 [label="gini = 0.0\nsamples = 1\nvalue = [1, 0]"] ;
816 -> 832 ;
833 [label="REPORTED_USAGE_LEVEL_high <= 0.5\ngini = 0.49\nsamples = 63\nvalue = [36, 27]"] ;
797 -> 833 ;
834 [label="OVER_15MINS_CALLS_PER_MONTH <= 8.5\ngini = 0.496\nsamples = 59\nvalue = [32, 27]"] ;
833 -> 834 ;
835 [label="REPORTED_SATISFACTION_sat <= 0.5\ngini = 0.499\nsamples = 56\nvalue = [29, 27]"] ;
834 -> 835 ;
836 [label="OVERAGE <= 38.0\ngini = 0.496\nsamples = 53\nvalue = [29, 24]"] ;
835 -> 836 ;
837 [label="INCOME <= 154253.0\ngini = 0.463\nsamples = 33\nvalue = [21, 12]"] ;
836 -> 837 ;
838 [label="INCOME <= 103375.0\ngini = 0.437\nsamples = 31\nvalue = [21, 10]"] ;
837 -> 838 ;
839 [label="CONSIDERING_CHANGE_OF_PLAN_no <= 0.5\ngini = 0.375\nsamples = 4\nvalue = [1, 3]"] ;
838 -> 839 ;
840 [label="gini = 0.0\nsamples = 3\nvalue = [0, 3]"] ;
839 -> 840 ;
841 [label="gini = 0.0\nsamples = 1\nvalue = [1, 0]"] ;
839 -> 841 ;
842 [label="HANDSET_PRICE <= 460.5\ngini = 0.384\nsamples = 27\nvalue = [20, 7]"] ;
838 -> 842 ;
843 [label="gini = 0.0\nsamples = 8\nvalue = [8, 0]"] ;
842 -> 843 ;
844 [label="INCOME <= 129049.5\ngini = 0.465\nsamples = 19\nvalue = [12, 7]"] ;
842 -> 844 ;
845 [label="HANDSET_PRICE <= 498.0\ngini = 0.355\nsamples = 13\nvalue = [10, 3]"] ;
844 -> 845 ;
846 [label="OVER_15MINS_CALLS_PER_MONTH <= 2.0\ngini = 0.444\nsamples = 3\nvalue = [1, 2]"] ;
845 -> 846 ;
847 [label="gini = 0.0\nsamples = 2\nvalue = [0, 2]"] ;
846 -> 847 ;
848 [label="gini = 0.0\nsamples = 1\nvalue = [1, 0]"] ;
846 -> 848 ;
849 [label="CONSIDERING_CHANGE_OF_PLAN_no <= 0.5\ngini = 0.18\nsamples = 10\nvalue = [9, 1]"] ;
845 -> 849 ;
850 [label="gini = 0.0\nsamples = 9\nvalue = [9, 0]"] ;
849 -> 850 ;
851 [label="gini = 0.0\nsamples = 1\nvalue = [0, 1]"] ;
849 -> 851 ;
852 [label="HOUSE <= 278262.0\ngini = 0.444\nsamples = 6\nvalue = [2, 4]"] ;
844 -> 852 ;
853 [label="gini = 0.0\nsamples = 2\nvalue = [2, 0]"] ;
852 -> 853 ;
854 [label="gini = 0.0\nsamples = 4\nvalue = [0, 4]"] ;
852 -> 854 ;
855 [label="gini = 0.0\nsamples = 2\nvalue = [0, 2]"] ;
837 -> 855 ;
856 [label="HANDSET_PRICE <= 460.5\ngini = 0.48\nsamples = 20\nvalue = [8, 12]"] ;
836 -> 856 ;
857 [label="gini = 0.0\nsamples = 4\nvalue = [0, 4]"] ;
856 -> 857 ;
858 [label="HOUSE <= 314974.5\ngini = 0.5\nsamples = 16\nvalue = [8, 8]"] ;
856 -> 858 ;
859 [label="INCOME <= 156722.0\ngini = 0.278\nsamples = 6\nvalue = [1, 5]"] ;
858 -> 859 ;
860 [label="gini = 0.0\nsamples = 5\nvalue = [0, 5]"] ;
859 -> 860 ;
861 [label="gini = 0.0\nsamples = 1\nvalue = [1, 0]"] ;
859 -> 861 ;
862 [label="HANDSET_PRICE <= 524.5\ngini = 0.42\nsamples = 10\nvalue = [7, 3]"] ;
858 -> 862 ;
863 [label="gini = 0.0\nsamples = 4\nvalue = [4, 0]"] ;
862 -> 863 ;
864 [label="OVERAGE <= 64.5\ngini = 0.5\nsamples = 6\nvalue = [3, 3]"] ;
862 -> 864 ;
865 [label="OVER_15MINS_CALLS_PER_MONTH <= 3.5\ngini = 0.375\nsamples = 4\nvalue = [1, 3]"] ;
864 -> 865 ;
866 [label="gini = 0.0\nsamples = 1\nvalue = [1, 0]"] ;
865 -> 866 ;
867 [label="gini = 0.0\nsamples = 3\nvalue = [0, 3]"] ;
865 -> 867 ;
868 [label="gini = 0.0\nsamples = 2\nvalue = [2, 0]"] ;
864 -> 868 ;
869 [label="gini = 0.0\nsamples = 3\nvalue = [0, 3]"] ;
835 -> 869 ;
870 [label="gini = 0.0\nsamples = 3\nvalue = [3, 0]"] ;
834 -> 870 ;
871 [label="gini = 0.0\nsamples = 4\nvalue = [4, 0]"] ;
833 -> 871 ;
872 [label="HANDSET_PRICE <= 446.0\ngini = 0.408\nsamples = 42\nvalue = [12, 30]"] ;
796 -> 872 ;
873 [label="AVERAGE_CALL_DURATION <= 12.5\ngini = 0.499\nsamples = 21\nvalue = [10, 11]"] ;
872 -> 873 ;
874 [label="HOUSE <= 361935.0\ngini = 0.426\nsamples = 13\nvalue = [9, 4]"] ;
873 -> 874 ;
875 [label="gini = 0.0\nsamples = 4\nvalue = [0, 4]"] ;
874 -> 875 ;
876 [label="gini = 0.0\nsamples = 9\nvalue = [9, 0]"] ;
874 -> 876 ;
877 [label="REPORTED_SATISFACTION_unsat <= 0.5\ngini = 0.219\nsamples = 8\nvalue = [1, 7]"] ;
873 -> 877 ;
878 [label="gini = 0.0\nsamples = 7\nvalue = [0, 7]"] ;
877 -> 878 ;
879 [label="gini = 0.0\nsamples = 1\nvalue = [1, 0]"] ;
877 -> 879 ;
880 [label="OVER_15MINS_CALLS_PER_MONTH <= 2.0\ngini = 0.172\nsamples = 21\nvalue = [2, 19]"] ;
872 -> 880 ;
881 [label="INCOME <= 108755.5\ngini = 0.346\nsamples = 9\nvalue = [2, 7]"] ;
880 -> 881 ;
882 [label="gini = 0.0\nsamples = 1\nvalue = [1, 0]"] ;
881 -> 882 ;
883 [label="OVERAGE <= 17.0\ngini = 0.219\nsamples = 8\nvalue = [1, 7]"] ;
881 -> 883 ;
884 [label="gini = 0.0\nsamples = 7\nvalue = [0, 7]"] ;
883 -> 884 ;
885 [label="gini = 0.0\nsamples = 1\nvalue = [1, 0]"] ;
883 -> 885 ;
886 [label="gini = 0.0\nsamples = 12\nvalue = [0, 12]"] ;
880 -> 886 ;
887 [label="AVERAGE_CALL_DURATION <= 12.5\ngini = 0.165\nsamples = 11\nvalue = [1, 10]"] ;
795 -> 887 ;
888 [label="gini = 0.0\nsamples = 9\nvalue = [0, 9]"] ;
887 -> 888 ;
889 [label="AVERAGE_CALL_DURATION <= 14.0\ngini = 0.5\nsamples = 2\nvalue = [1, 1]"] ;
887 -> 889 ;
890 [label="gini = 0.0\nsamples = 1\nvalue = [1, 0]"] ;
889 -> 890 ;
891 [label="gini = 0.0\nsamples = 1\nvalue = [0, 1]"] ;
889 -> 891 ;
892 [label="gini = 0.0\nsamples = 5\nvalue = [5, 0]"] ;
794 -> 892 ;
893 [label="HOUSE <= 578217.0\ngini = 0.105\nsamples = 18\nvalue = [1, 17]"] ;
785 -> 893 ;
894 [label="gini = 0.0\nsamples = 16\nvalue = [0, 16]"] ;
893 -> 894 ;
895 [label="OVERAGE <= 35.0\ngini = 0.5\nsamples = 2\nvalue = [1, 1]"] ;
893 -> 895 ;
896 [label="gini = 0.0\nsamples = 1\nvalue = [0, 1]"] ;
895 -> 896 ;
897 [label="gini = 0.0\nsamples = 1\nvalue = [1, 0]"] ;
895 -> 897 ;
898 [label="OVERAGE <= 21.0\ngini = 0.32\nsamples = 10\nvalue = [8, 2]"] ;
784 -> 898 ;
899 [label="gini = 0.0\nsamples = 2\nvalue = [0, 2]"] ;
898 -> 899 ;
900 [label="gini = 0.0\nsamples = 8\nvalue = [8, 0]"] ;
898 -> 900 ;
901 [label="INCOME <= 84602.0\ngini = 0.219\nsamples = 8\nvalue = [7, 1]"] ;
783 -> 901 ;
902 [label="OVERAGE <= 63.0\ngini = 0.5\nsamples = 2\nvalue = [1, 1]"] ;
901 -> 902 ;
903 [label="gini = 0.0\nsamples = 1\nvalue = [1, 0]"] ;
902 -> 903 ;
904 [label="gini = 0.0\nsamples = 1\nvalue = [0, 1]"] ;
902 -> 904 ;
905 [label="gini = 0.0\nsamples = 6\nvalue = [6, 0]"] ;
901 -> 905 ;
906 [label="INCOME <= 120184.0\ngini = 0.495\nsamples = 445\nvalue = [245, 200]"] ;
708 -> 906 ;
907 [label="INCOME <= 71971.0\ngini = 0.456\nsamples = 165\nvalue = [107, 58]"] ;
906 -> 907 ;
908 [label="gini = 0.0\nsamples = 4\nvalue = [0, 4]"] ;
907 -> 908 ;
909 [label="REPORTED_USAGE_LEVEL_little <= 0.5\ngini = 0.446\nsamples = 161\nvalue = [107, 54]"] ;
907 -> 909 ;
910 [label="INCOME <= 102452.5\ngini = 0.372\nsamples = 93\nvalue = [70, 23]"] ;
909 -> 910 ;
911 [label="gini = 0.0\nsamples = 17\nvalue = [17, 0]"] ;
910 -> 911 ;
912 [label="AVERAGE_CALL_DURATION <= 10.5\ngini = 0.422\nsamples = 76\nvalue = [53, 23]"] ;
910 -> 912 ;
913 [label="REPORTED_USAGE_LEVEL_high <= 0.5\ngini = 0.484\nsamples = 34\nvalue = [20, 14]"] ;
912 -> 913 ;
914 [label="REPORTED_USAGE_LEVEL_very_high <= 0.5\ngini = 0.458\nsamples = 31\nvalue = [20, 11]"] ;
913 -> 914 ;
915 [label="INCOME <= 113841.0\ngini = 0.305\nsamples = 16\nvalue = [13, 3]"] ;
914 -> 915 ;
916 [label="gini = 0.0\nsamples = 9\nvalue = [9, 0]"] ;
915 -> 916 ;
917 [label="OVER_15MINS_CALLS_PER_MONTH <= 3.5\ngini = 0.49\nsamples = 7\nvalue = [4, 3]"] ;
915 -> 917 ;
918 [label="gini = 0.0\nsamples = 2\nvalue = [0, 2]"] ;
917 -> 918 ;
919 [label="CONSIDERING_CHANGE_OF_PLAN_never_thought <= 0.5\ngini = 0.32\nsamples = 5\nvalue = [4, 1]"] ;
917 -> 919 ;
920 [label="gini = 0.0\nsamples = 4\nvalue = [4, 0]"] ;
919 -> 920 ;
921 [label="gini = 0.0\nsamples = 1\nvalue = [0, 1]"] ;
919 -> 921 ;
922 [label="CONSIDERING_CHANGE_OF_PLAN_considering <= 0.5\ngini = 0.498\nsamples = 15\nvalue = [7, 8]"] ;
914 -> 922 ;
923 [label="HANDSET_PRICE <= 680.0\ngini = 0.42\nsamples = 10\nvalue = [7, 3]"] ;
922 -> 923 ;
924 [label="CONSIDERING_CHANGE_OF_PLAN_perhaps <= 0.5\ngini = 0.375\nsamples = 4\nvalue = [1, 3]"] ;
923 -> 924 ;
925 [label="gini = 0.0\nsamples = 3\nvalue = [0, 3]"] ;
924 -> 925 ;
926 [label="gini = 0.0\nsamples = 1\nvalue = [1, 0]"] ;
924 -> 926 ;
927 [label="gini = 0.0\nsamples = 6\nvalue = [6, 0]"] ;
923 -> 927 ;
928 [label="gini = 0.0\nsamples = 5\nvalue = [0, 5]"] ;
922 -> 928 ;
929 [label="gini = 0.0\nsamples = 3\nvalue = [0, 3]"] ;
913 -> 929 ;
930 [label="OVERAGE <= 71.5\ngini = 0.337\nsamples = 42\nvalue = [33, 9]"] ;
912 -> 930 ;
931 [label="HANDSET_PRICE <= 832.0\ngini = 0.26\nsamples = 39\nvalue = [33, 6]"] ;
930 -> 931 ;
932 [label="AVERAGE_CALL_DURATION <= 13.5\ngini = 0.121\nsamples = 31\nvalue = [29, 2]"] ;
931 -> 932 ;
933 [label="gini = 0.0\nsamples = 18\nvalue = [18, 0]"] ;
932 -> 933 ;
934 [label="OVERAGE <= 8.0\ngini = 0.26\nsamples = 13\nvalue = [11, 2]"] ;
932 -> 934 ;
935 [label="AVERAGE_CALL_DURATION <= 14.5\ngini = 0.48\nsamples = 5\nvalue = [3, 2]"] ;
934 -> 935 ;
936 [label="REPORTED_SATISFACTION_unsat <= 0.5\ngini = 0.444\nsamples = 3\nvalue = [1, 2]"] ;
935 -> 936 ;
937 [label="gini = 0.0\nsamples = 2\nvalue = [0, 2]"] ;
936 -> 937 ;
938 [label="gini = 0.0\nsamples = 1\nvalue = [1, 0]"] ;
936 -> 938 ;
939 [label="gini = 0.0\nsamples = 2\nvalue = [2, 0]"] ;
935 -> 939 ;
940 [label="gini = 0.0\nsamples = 8\nvalue = [8, 0]"] ;
934 -> 940 ;
941 [label="OVER_15MINS_CALLS_PER_MONTH <= 3.5\ngini = 0.5\nsamples = 8\nvalue = [4, 4]"] ;
931 -> 941 ;
942 [label="COLLEGE <= 0.5\ngini = 0.32\nsamples = 5\nvalue = [1, 4]"] ;
941 -> 942 ;
943 [label="AVERAGE_CALL_DURATION <= 13.0\ngini = 0.5\nsamples = 2\nvalue = [1, 1]"] ;
942 -> 943 ;
944 [label="gini = 0.0\nsamples = 1\nvalue = [1, 0]"] ;
943 -> 944 ;
945 [label="gini = 0.0\nsamples = 1\nvalue = [0, 1]"] ;
943 -> 945 ;
946 [label="gini = 0.0\nsamples = 3\nvalue = [0, 3]"] ;
942 -> 946 ;
947 [label="gini = 0.0\nsamples = 3\nvalue = [3, 0]"] ;
941 -> 947 ;
948 [label="gini = 0.0\nsamples = 3\nvalue = [0, 3]"] ;
930 -> 948 ;
949 [label="REPORTED_SATISFACTION_unsat <= 0.5\ngini = 0.496\nsamples = 68\nvalue = [37, 31]"] ;
909 -> 949 ;
950 [label="HOUSE <= 512936.0\ngini = 0.499\nsamples = 58\nvalue = [28, 30]"] ;
949 -> 950 ;
951 [label="AVERAGE_CALL_DURATION <= 9.5\ngini = 0.483\nsamples = 49\nvalue = [20, 29]"] ;
950 -> 951 ;
952 [label="HOUSE <= 416337.0\ngini = 0.426\nsamples = 13\nvalue = [9, 4]"] ;
951 -> 952 ;
953 [label="REPORTED_SATISFACTION_sat <= 0.5\ngini = 0.18\nsamples = 10\nvalue = [9, 1]"] ;
952 -> 953 ;
954 [label="gini = 0.0\nsamples = 8\nvalue = [8, 0]"] ;
953 -> 954 ;
955 [label="INCOME <= 110533.0\ngini = 0.5\nsamples = 2\nvalue = [1, 1]"] ;
953 -> 955 ;
956 [label="gini = 0.0\nsamples = 1\nvalue = [1, 0]"] ;
955 -> 956 ;
957 [label="gini = 0.0\nsamples = 1\nvalue = [0, 1]"] ;
955 -> 957 ;
958 [label="gini = 0.0\nsamples = 3\nvalue = [0, 3]"] ;
952 -> 958 ;
959 [label="INCOME <= 117307.0\ngini = 0.424\nsamples = 36\nvalue = [11, 25]"] ;
951 -> 959 ;
960 [label="REPORTED_SATISFACTION_sat <= 0.5\ngini = 0.375\nsamples = 32\nvalue = [8, 24]"] ;
959 -> 960 ;
961 [label="CONSIDERING_CHANGE_OF_PLAN_perhaps <= 0.5\ngini = 0.32\nsamples = 30\nvalue = [6, 24]"] ;
960 -> 961 ;
962 [label="HOUSE <= 286164.5\ngini = 0.285\nsamples = 29\nvalue = [5, 24]"] ;
961 -> 962 ;
963 [label="HANDSET_PRICE <= 599.5\ngini = 0.133\nsamples = 14\nvalue = [1, 13]"] ;
962 -> 963 ;
964 [label="HOUSE <= 204538.0\ngini = 0.5\nsamples = 2\nvalue = [1, 1]"] ;
963 -> 964 ;
965 [label="gini = 0.0\nsamples = 1\nvalue = [1, 0]"] ;
964 -> 965 ;
966 [label="gini = 0.0\nsamples = 1\nvalue = [0, 1]"] ;
964 -> 966 ;
967 [label="gini = 0.0\nsamples = 12\nvalue = [0, 12]"] ;
963 -> 967 ;
968 [label="AVERAGE_CALL_DURATION <= 11.5\ngini = 0.391\nsamples = 15\nvalue = [4, 11]"] ;
962 -> 968 ;
969 [label="REPORTED_SATISFACTION_very_sat <= 0.5\ngini = 0.444\nsamples = 3\nvalue = [2, 1]"] ;
968 -> 969 ;
970 [label="gini = 0.0\nsamples = 1\nvalue = [0, 1]"] ;
969 -> 970 ;
971 [label="gini = 0.0\nsamples = 2\nvalue = [2, 0]"] ;
969 -> 971 ;
972 [label="OVER_15MINS_CALLS_PER_MONTH <= 0.5\ngini = 0.278\nsamples = 12\nvalue = [2, 10]"] ;
968 -> 972 ;
973 [label="AVERAGE_CALL_DURATION <= 14.0\ngini = 0.5\nsamples = 4\nvalue = [2, 2]"] ;
972 -> 973 ;
974 [label="INCOME <= 108261.0\ngini = 0.444\nsamples = 3\nvalue = [1, 2]"] ;
973 -> 974 ;
975 [label="gini = 0.0\nsamples = 2\nvalue = [0, 2]"] ;
974 -> 975 ;
976 [label="gini = 0.0\nsamples = 1\nvalue = [1, 0]"] ;
974 -> 976 ;
977 [label="gini = 0.0\nsamples = 1\nvalue = [1, 0]"] ;
973 -> 977 ;
978 [label="gini = 0.0\nsamples = 8\nvalue = [0, 8]"] ;
972 -> 978 ;
979 [label="gini = 0.0\nsamples = 1\nvalue = [1, 0]"] ;
961 -> 979 ;
980 [label="gini = 0.0\nsamples = 2\nvalue = [2, 0]"] ;
960 -> 980 ;
981 [label="COLLEGE <= 0.5\ngini = 0.375\nsamples = 4\nvalue = [3, 1]"] ;
959 -> 981 ;
982 [label="gini = 0.0\nsamples = 3\nvalue = [3, 0]"] ;
981 -> 982 ;
983 [label="gini = 0.0\nsamples = 1\nvalue = [0, 1]"] ;
981 -> 983 ;
984 [label="HANDSET_PRICE <= 690.5\ngini = 0.198\nsamples = 9\nvalue = [8, 1]"] ;
950 -> 984 ;
985 [label="gini = 0.0\nsamples = 1\nvalue = [0, 1]"] ;
984 -> 985 ;
986 [label="gini = 0.0\nsamples = 8\nvalue = [8, 0]"] ;
984 -> 986 ;
987 [label="HOUSE <= 486503.5\ngini = 0.18\nsamples = 10\nvalue = [9, 1]"] ;
949 -> 987 ;
988 [label="gini = 0.0\nsamples = 9\nvalue = [9, 0]"] ;
987 -> 988 ;
989 [label="gini = 0.0\nsamples = 1\nvalue = [0, 1]"] ;
987 -> 989 ;
990 [label="HANDSET_PRICE <= 604.5\ngini = 0.5\nsamples = 280\nvalue = [138, 142]"] ;
906 -> 990 ;
991 [label="INCOME <= 122757.5\ngini = 0.36\nsamples = 34\nvalue = [26, 8]"] ;
990 -> 991 ;
992 [label="HOUSE <= 479640.5\ngini = 0.444\nsamples = 3\nvalue = [1, 2]"] ;
991 -> 992 ;
993 [label="gini = 0.0\nsamples = 2\nvalue = [0, 2]"] ;
992 -> 993 ;
994 [label="gini = 0.0\nsamples = 1\nvalue = [1, 0]"] ;
992 -> 994 ;
995 [label="OVERAGE <= 66.0\ngini = 0.312\nsamples = 31\nvalue = [25, 6]"] ;
991 -> 995 ;
996 [label="HANDSET_PRICE <= 587.5\ngini = 0.245\nsamples = 28\nvalue = [24, 4]"] ;
995 -> 996 ;
997 [label="REPORTED_USAGE_LEVEL_very_little <= 0.5\ngini = 0.444\nsamples = 12\nvalue = [8, 4]"] ;
996 -> 997 ;
998 [label="OVER_15MINS_CALLS_PER_MONTH <= 3.5\ngini = 0.32\nsamples = 10\nvalue = [8, 2]"] ;
997 -> 998 ;
999 [label="gini = 0.0\nsamples = 7\nvalue = [7, 0]"] ;
998 -> 999 ;
1000 [label="HOUSE <= 536172.0\ngini = 0.444\nsamples = 3\nvalue = [1, 2]"] ;
998 -> 1000 ;
1001 [label="gini = 0.0\nsamples = 2\nvalue = [0, 2]"] ;
1000 -> 1001 ;
1002 [label="gini = 0.0\nsamples = 1\nvalue = [1, 0]"] ;
1000 -> 1002 ;
1003 [label="gini = 0.0\nsamples = 2\nvalue = [0, 2]"] ;
997 -> 1003 ;
1004 [label="gini = 0.0\nsamples = 16\nvalue = [16, 0]"] ;
996 -> 1004 ;
1005 [label="HOUSE <= 439942.5\ngini = 0.444\nsamples = 3\nvalue = [1, 2]"] ;
995 -> 1005 ;
1006 [label="gini = 0.0\nsamples = 2\nvalue = [0, 2]"] ;
1005 -> 1006 ;
1007 [label="gini = 0.0\nsamples = 1\nvalue = [1, 0]"] ;
1005 -> 1007 ;
1008 [label="AVERAGE_CALL_DURATION <= 13.5\ngini = 0.496\nsamples = 246\nvalue = [112, 134]"] ;
990 -> 1008 ;
1009 [label="HANDSET_PRICE <= 726.5\ngini = 0.481\nsamples = 189\nvalue = [76, 113]"] ;
1008 -> 1009 ;
1010 [label="REPORTED_SATISFACTION_very_unsat <= 0.5\ngini = 0.404\nsamples = 82\nvalue = [23, 59]"] ;
1009 -> 1010 ;
1011 [label="OVER_15MINS_CALLS_PER_MONTH <= 0.5\ngini = 0.469\nsamples = 56\nvalue = [21, 35]"] ;
1010 -> 1011 ;
1012 [label="HANDSET_PRICE <= 691.5\ngini = 0.245\nsamples = 7\nvalue = [6, 1]"] ;
1011 -> 1012 ;
1013 [label="gini = 0.0\nsamples = 6\nvalue = [6, 0]"] ;
1012 -> 1013 ;
1014 [label="gini = 0.0\nsamples = 1\nvalue = [0, 1]"] ;
1012 -> 1014 ;
1015 [label="REPORTED_USAGE_LEVEL_little <= 0.5\ngini = 0.425\nsamples = 49\nvalue = [15, 34]"] ;
1011 -> 1015 ;
1016 [label="HANDSET_PRICE <= 614.0\ngini = 0.211\nsamples = 25\nvalue = [3, 22]"] ;
1015 -> 1016 ;
1017 [label="gini = 0.0\nsamples = 1\nvalue = [1, 0]"] ;
1016 -> 1017 ;
1018 [label="OVERAGE <= 59.5\ngini = 0.153\nsamples = 24\nvalue = [2, 22]"] ;
1016 -> 1018 ;
1019 [label="INCOME <= 122238.0\ngini = 0.087\nsamples = 22\nvalue = [1, 21]"] ;
1018 -> 1019 ;
1020 [label="CONSIDERING_CHANGE_OF_PLAN_no <= 0.5\ngini = 0.5\nsamples = 2\nvalue = [1, 1]"] ;
1019 -> 1020 ;
1021 [label="gini = 0.0\nsamples = 1\nvalue = [1, 0]"] ;
1020 -> 1021 ;
1022 [label="gini = 0.0\nsamples = 1\nvalue = [0, 1]"] ;
1020 -> 1022 ;
1023 [label="gini = 0.0\nsamples = 20\nvalue = [0, 20]"] ;
1019 -> 1023 ;
1024 [label="REPORTED_SATISFACTION_unsat <= 0.5\ngini = 0.5\nsamples = 2\nvalue = [1, 1]"] ;
1018 -> 1024 ;
1025 [label="gini = 0.0\nsamples = 1\nvalue = [1, 0]"] ;
1024 -> 1025 ;
1026 [label="gini = 0.0\nsamples = 1\nvalue = [0, 1]"] ;
1024 -> 1026 ;
1027 [label="OVERAGE <= 66.5\ngini = 0.5\nsamples = 24\nvalue = [12, 12]"] ;
1015 -> 1027 ;
1028 [label="HOUSE <= 412465.5\ngini = 0.48\nsamples = 20\nvalue = [8, 12]"] ;
1027 -> 1028 ;
1029 [label="INCOME <= 126929.5\ngini = 0.498\nsamples = 15\nvalue = [8, 7]"] ;
1028 -> 1029 ;
1030 [label="gini = 0.0\nsamples = 2\nvalue = [0, 2]"] ;
1029 -> 1030 ;
1031 [label="INCOME <= 152837.5\ngini = 0.473\nsamples = 13\nvalue = [8, 5]"] ;
1029 -> 1031 ;
1032 [label="HANDSET_PRICE <= 668.5\ngini = 0.397\nsamples = 11\nvalue = [8, 3]"] ;
1031 -> 1032 ;
1033 [label="gini = 0.0\nsamples = 5\nvalue = [5, 0]"] ;
1032 -> 1033 ;
1034 [label="HANDSET_PRICE <= 693.0\ngini = 0.5\nsamples = 6\nvalue = [3, 3]"] ;
1032 -> 1034 ;
1035 [label="gini = 0.0\nsamples = 2\nvalue = [0, 2]"] ;
1034 -> 1035 ;
1036 [label="HOUSE <= 181146.5\ngini = 0.375\nsamples = 4\nvalue = [3, 1]"] ;
1034 -> 1036 ;
1037 [label="gini = 0.0\nsamples = 1\nvalue = [0, 1]"] ;
1036 -> 1037 ;
1038 [label="gini = 0.0\nsamples = 3\nvalue = [3, 0]"] ;
1036 -> 1038 ;
1039 [label="gini = 0.0\nsamples = 2\nvalue = [0, 2]"] ;
1031 -> 1039 ;
1040 [label="gini = 0.0\nsamples = 5\nvalue = [0, 5]"] ;
1028 -> 1040 ;
1041 [label="gini = 0.0\nsamples = 4\nvalue = [4, 0]"] ;
1027 -> 1041 ;
1042 [label="HOUSE <= 160041.5\ngini = 0.142\nsamples = 26\nvalue = [2, 24]"] ;
1010 -> 1042 ;
1043 [label="gini = 0.0\nsamples = 1\nvalue = [1, 0]"] ;
1042 -> 1043 ;
1044 [label="AVERAGE_CALL_DURATION <= 12.5\ngini = 0.077\nsamples = 25\nvalue = [1, 24]"] ;
1042 -> 1044 ;
1045 [label="gini = 0.0\nsamples = 21\nvalue = [0, 21]"] ;
1044 -> 1045 ;
1046 [label="CONSIDERING_CHANGE_OF_PLAN_no <= 0.5\ngini = 0.375\nsamples = 4\nvalue = [1, 3]"] ;
1044 -> 1046 ;
1047 [label="gini = 0.0\nsamples = 2\nvalue = [0, 2]"] ;
1046 -> 1047 ;
1048 [label="HANDSET_PRICE <= 651.5\ngini = 0.5\nsamples = 2\nvalue = [1, 1]"] ;
1046 -> 1048 ;
1049 [label="gini = 0.0\nsamples = 1\nvalue = [0, 1]"] ;
1048 -> 1049 ;
1050 [label="gini = 0.0\nsamples = 1\nvalue = [1, 0]"] ;
1048 -> 1050 ;
1051 [label="REPORTED_USAGE_LEVEL_very_little <= 0.5\ngini = 0.5\nsamples = 107\nvalue = [53, 54]"] ;
1009 -> 1051 ;
1052 [label="INCOME <= 131291.5\ngini = 0.494\nsamples = 92\nvalue = [41, 51]"] ;
1051 -> 1052 ;
1053 [label="REPORTED_SATISFACTION_very_unsat <= 0.5\ngini = 0.346\nsamples = 18\nvalue = [4, 14]"] ;
1052 -> 1053 ;
1054 [label="gini = 0.0\nsamples = 8\nvalue = [0, 8]"] ;
1053 -> 1054 ;
1055 [label="HOUSE <= 511399.5\ngini = 0.48\nsamples = 10\nvalue = [4, 6]"] ;
1053 -> 1055 ;
1056 [label="REPORTED_USAGE_LEVEL_little <= 0.5\ngini = 0.375\nsamples = 8\nvalue = [2, 6]"] ;
1055 -> 1056 ;
1057 [label="gini = 0.0\nsamples = 5\nvalue = [0, 5]"] ;
1056 -> 1057 ;
1058 [label="CONSIDERING_CHANGE_OF_PLAN_no <= 0.5\ngini = 0.444\nsamples = 3\nvalue = [2, 1]"] ;
1056 -> 1058 ;
1059 [label="gini = 0.0\nsamples = 2\nvalue = [2, 0]"] ;
1058 -> 1059 ;
1060 [label="gini = 0.0\nsamples = 1\nvalue = [0, 1]"] ;
1058 -> 1060 ;
1061 [label="gini = 0.0\nsamples = 2\nvalue = [2, 0]"] ;
1055 -> 1061 ;
1062 [label="HOUSE <= 269313.5\ngini = 0.5\nsamples = 74\nvalue = [37, 37]"] ;
1052 -> 1062 ;
1063 [label="HANDSET_PRICE <= 842.0\ngini = 0.475\nsamples = 31\nvalue = [19, 12]"] ;
1062 -> 1063 ;
1064 [label="HANDSET_PRICE <= 752.0\ngini = 0.499\nsamples = 21\nvalue = [10, 11]"] ;
1063 -> 1064 ;
1065 [label="gini = 0.0\nsamples = 4\nvalue = [4, 0]"] ;
1064 -> 1065 ;
1066 [label="REPORTED_SATISFACTION_very_unsat <= 0.5\ngini = 0.457\nsamples = 17\nvalue = [6, 11]"] ;
1064 -> 1066 ;
1067 [label="INCOME <= 137882.0\ngini = 0.355\nsamples = 13\nvalue = [3, 10]"] ;
1066 -> 1067 ;
1068 [label="gini = 0.0\nsamples = 2\nvalue = [2, 0]"] ;
1067 -> 1068 ;
1069 [label="HOUSE <= 265342.0\ngini = 0.165\nsamples = 11\nvalue = [1, 10]"] ;
1067 -> 1069 ;
1070 [label="gini = 0.0\nsamples = 10\nvalue = [0, 10]"] ;
1069 -> 1070 ;
1071 [label="gini = 0.0\nsamples = 1\nvalue = [1, 0]"] ;
1069 -> 1071 ;
1072 [label="AVERAGE_CALL_DURATION <= 8.5\ngini = 0.375\nsamples = 4\nvalue = [3, 1]"] ;
1066 -> 1072 ;
1073 [label="gini = 0.0\nsamples = 1\nvalue = [0, 1]"] ;
1072 -> 1073 ;
1074 [label="gini = 0.0\nsamples = 3\nvalue = [3, 0]"] ;
1072 -> 1074 ;
1075 [label="HANDSET_PRICE <= 889.5\ngini = 0.18\nsamples = 10\nvalue = [9, 1]"] ;
1063 -> 1075 ;
1076 [label="gini = 0.0\nsamples = 8\nvalue = [8, 0]"] ;
1075 -> 1076 ;
1077 [label="HANDSET_PRICE <= 894.0\ngini = 0.5\nsamples = 2\nvalue = [1, 1]"] ;
1075 -> 1077 ;
1078 [label="gini = 0.0\nsamples = 1\nvalue = [0, 1]"] ;
1077 -> 1078 ;
1079 [label="gini = 0.0\nsamples = 1\nvalue = [1, 0]"] ;
1077 -> 1079 ;
1080 [label="HANDSET_PRICE <= 822.5\ngini = 0.487\nsamples = 43\nvalue = [18, 25]"] ;
1062 -> 1080 ;
1081 [label="REPORTED_USAGE_LEVEL_very_high <= 0.5\ngini = 0.472\nsamples = 21\nvalue = [13, 8]"] ;
1080 -> 1081 ;
1082 [label="HOUSE <= 316748.0\ngini = 0.401\nsamples = 18\nvalue = [13, 5]"] ;
1081 -> 1082 ;
1083 [label="gini = 0.0\nsamples = 2\nvalue = [0, 2]"] ;
1082 -> 1083 ;
1084 [label="OVER_15MINS_CALLS_PER_MONTH <= 0.5\ngini = 0.305\nsamples = 16\nvalue = [13, 3]"] ;
1082 -> 1084 ;
1085 [label="AVERAGE_CALL_DURATION <= 11.5\ngini = 0.444\nsamples = 3\nvalue = [1, 2]"] ;
1084 -> 1085 ;
1086 [label="gini = 0.0\nsamples = 2\nvalue = [0, 2]"] ;
1085 -> 1086 ;
1087 [label="gini = 0.0\nsamples = 1\nvalue = [1, 0]"] ;
1085 -> 1087 ;
1088 [label="OVER_15MINS_CALLS_PER_MONTH <= 15.0\ngini = 0.142\nsamples = 13\nvalue = [12, 1]"] ;
1084 -> 1088 ;
1089 [label="gini = 0.0\nsamples = 12\nvalue = [12, 0]"] ;
1088 -> 1089 ;
1090 [label="gini = 0.0\nsamples = 1\nvalue = [0, 1]"] ;
1088 -> 1090 ;
1091 [label="gini = 0.0\nsamples = 3\nvalue = [0, 3]"] ;
1081 -> 1091 ;
1092 [label="INCOME <= 132718.5\ngini = 0.351\nsamples = 22\nvalue = [5, 17]"] ;
1080 -> 1092 ;
1093 [label="gini = 0.0\nsamples = 2\nvalue = [2, 0]"] ;
1092 -> 1093 ;
1094 [label="INCOME <= 147483.0\ngini = 0.255\nsamples = 20\nvalue = [3, 17]"] ;
1092 -> 1094 ;
1095 [label="gini = 0.0\nsamples = 12\nvalue = [0, 12]"] ;
1094 -> 1095 ;
1096 [label="INCOME <= 151347.0\ngini = 0.469\nsamples = 8\nvalue = [3, 5]"] ;
1094 -> 1096 ;
1097 [label="COLLEGE <= 0.5\ngini = 0.375\nsamples = 4\nvalue = [3, 1]"] ;
1096 -> 1097 ;
1098 [label="gini = 0.0\nsamples = 3\nvalue = [3, 0]"] ;
1097 -> 1098 ;
1099 [label="gini = 0.0\nsamples = 1\nvalue = [0, 1]"] ;
1097 -> 1099 ;
1100 [label="gini = 0.0\nsamples = 4\nvalue = [0, 4]"] ;
1096 -> 1100 ;
1101 [label="HOUSE <= 560908.5\ngini = 0.32\nsamples = 15\nvalue = [12, 3]"] ;
1051 -> 1101 ;
1102 [label="AVERAGE_CALL_DURATION <= 1.5\ngini = 0.142\nsamples = 13\nvalue = [12, 1]"] ;
1101 -> 1102 ;
1103 [label="gini = 0.0\nsamples = 1\nvalue = [0, 1]"] ;
1102 -> 1103 ;
1104 [label="gini = 0.0\nsamples = 12\nvalue = [12, 0]"] ;
1102 -> 1104 ;
1105 [label="gini = 0.0\nsamples = 2\nvalue = [0, 2]"] ;
1101 -> 1105 ;
1106 [label="OVERAGE <= 65.0\ngini = 0.465\nsamples = 57\nvalue = [36, 21]"] ;
1008 -> 1106 ;
1107 [label="HANDSET_PRICE <= 640.5\ngini = 0.489\nsamples = 47\nvalue = [27, 20]"] ;
1106 -> 1107 ;
1108 [label="HOUSE <= 585971.5\ngini = 0.278\nsamples = 6\nvalue = [1, 5]"] ;
1107 -> 1108 ;
1109 [label="gini = 0.0\nsamples = 5\nvalue = [0, 5]"] ;
1108 -> 1109 ;
1110 [label="gini = 0.0\nsamples = 1\nvalue = [1, 0]"] ;
1108 -> 1110 ;
1111 [label="HANDSET_PRICE <= 675.0\ngini = 0.464\nsamples = 41\nvalue = [26, 15]"] ;
1107 -> 1111 ;
1112 [label="gini = 0.0\nsamples = 7\nvalue = [7, 0]"] ;
1111 -> 1112 ;
1113 [label="HOUSE <= 223169.0\ngini = 0.493\nsamples = 34\nvalue = [19, 15]"] ;
1111 -> 1113 ;
1114 [label="gini = 0.0\nsamples = 5\nvalue = [5, 0]"] ;
1113 -> 1114 ;
1115 [label="INCOME <= 139664.0\ngini = 0.499\nsamples = 29\nvalue = [14, 15]"] ;
1113 -> 1115 ;
1116 [label="CONSIDERING_CHANGE_OF_PLAN_no <= 0.5\ngini = 0.375\nsamples = 12\nvalue = [3, 9]"] ;
1115 -> 1116 ;
1117 [label="CONSIDERING_CHANGE_OF_PLAN_never_thought <= 0.5\ngini = 0.18\nsamples = 10\nvalue = [1, 9]"] ;
1116 -> 1117 ;
1118 [label="gini = 0.0\nsamples = 8\nvalue = [0, 8]"] ;
1117 -> 1118 ;
1119 [label="REPORTED_USAGE_LEVEL_little <= 0.5\ngini = 0.5\nsamples = 2\nvalue = [1, 1]"] ;
1117 -> 1119 ;
1120 [label="gini = 0.0\nsamples = 1\nvalue = [1, 0]"] ;
1119 -> 1120 ;
1121 [label="gini = 0.0\nsamples = 1\nvalue = [0, 1]"] ;
1119 -> 1121 ;
1122 [label="gini = 0.0\nsamples = 2\nvalue = [2, 0]"] ;
1116 -> 1122 ;
1123 [label="HANDSET_PRICE <= 737.0\ngini = 0.457\nsamples = 17\nvalue = [11, 6]"] ;
1115 -> 1123 ;
1124 [label="HANDSET_PRICE <= 719.5\ngini = 0.375\nsamples = 4\nvalue = [1, 3]"] ;
1123 -> 1124 ;
1125 [label="gini = 0.0\nsamples = 1\nvalue = [1, 0]"] ;
1124 -> 1125 ;
1126 [label="gini = 0.0\nsamples = 3\nvalue = [0, 3]"] ;
1124 -> 1126 ;
1127 [label="HOUSE <= 231353.0\ngini = 0.355\nsamples = 13\nvalue = [10, 3]"] ;
1123 -> 1127 ;
1128 [label="gini = 0.0\nsamples = 1\nvalue = [0, 1]"] ;
1127 -> 1128 ;
1129 [label="CONSIDERING_CHANGE_OF_PLAN_no <= 0.5\ngini = 0.278\nsamples = 12\nvalue = [10, 2]"] ;
1127 -> 1129 ;
1130 [label="AVERAGE_CALL_DURATION <= 14.5\ngini = 0.18\nsamples = 10\nvalue = [9, 1]"] ;
1129 -> 1130 ;
1131 [label="gini = 0.0\nsamples = 7\nvalue = [7, 0]"] ;
1130 -> 1131 ;
1132 [label="OVER_15MINS_CALLS_PER_MONTH <= 2.0\ngini = 0.444\nsamples = 3\nvalue = [2, 1]"] ;
1130 -> 1132 ;
1133 [label="gini = 0.0\nsamples = 1\nvalue = [0, 1]"] ;
1132 -> 1133 ;
1134 [label="gini = 0.0\nsamples = 2\nvalue = [2, 0]"] ;
1132 -> 1134 ;
1135 [label="INCOME <= 150780.5\ngini = 0.5\nsamples = 2\nvalue = [1, 1]"] ;
1129 -> 1135 ;
1136 [label="gini = 0.0\nsamples = 1\nvalue = [1, 0]"] ;
1135 -> 1136 ;
1137 [label="gini = 0.0\nsamples = 1\nvalue = [0, 1]"] ;
1135 -> 1137 ;
1138 [label="INCOME <= 153051.0\ngini = 0.18\nsamples = 10\nvalue = [9, 1]"] ;
1106 -> 1138 ;
1139 [label="gini = 0.0\nsamples = 8\nvalue = [8, 0]"] ;
1138 -> 1139 ;
1140 [label="REPORTED_USAGE_LEVEL_little <= 0.5\ngini = 0.5\nsamples = 2\nvalue = [1, 1]"] ;
1138 -> 1140 ;
1141 [label="gini = 0.0\nsamples = 1\nvalue = [0, 1]"] ;
1140 -> 1141 ;
1142 [label="gini = 0.0\nsamples = 1\nvalue = [1, 0]"] ;
1140 -> 1142 ;
1143 [label="OVERAGE <= 1.5\ngini = 0.424\nsamples = 2052\nvalue = [626, 1426]"] ;
3 -> 1143 ;
1144 [label="INCOME <= 49556.0\ngini = 0.236\nsamples = 1081\nvalue = [148, 933]"] ;
1143 -> 1144 ;
1145 [label="HOUSE <= 308373.5\ngini = 0.362\nsamples = 341\nvalue = [81, 260]"] ;
1144 -> 1145 ;
1146 [label="INCOME <= 49161.0\ngini = 0.151\nsamples = 158\nvalue = [13, 145]"] ;
1145 -> 1146 ;
1147 [label="CONSIDERING_CHANGE_OF_PLAN_never_thought <= 0.5\ngini = 0.131\nsamples = 156\nvalue = [11, 145]"] ;
1146 -> 1147 ;
1148 [label="OVER_15MINS_CALLS_PER_MONTH <= 8.5\ngini = 0.105\nsamples = 144\nvalue = [8, 136]"] ;
1147 -> 1148 ;
1149 [label="LEFTOVER <= 23.5\ngini = 0.094\nsamples = 142\nvalue = [7, 135]"] ;
1148 -> 1149 ;
1150 [label="REPORTED_SATISFACTION_very_sat <= 0.5\ngini = 0.072\nsamples = 134\nvalue = [5, 129]"] ;
1149 -> 1150 ;
1151 [label="LEFTOVER <= 7.5\ngini = 0.021\nsamples = 94\nvalue = [1, 93]"] ;
1150 -> 1151 ;
1152 [label="REPORTED_USAGE_LEVEL_very_high <= 0.5\ngini = 0.111\nsamples = 17\nvalue = [1, 16]"] ;
1151 -> 1152 ;
1153 [label="gini = 0.0\nsamples = 13\nvalue = [0, 13]"] ;
1152 -> 1153 ;
1154 [label="HANDSET_PRICE <= 217.0\ngini = 0.375\nsamples = 4\nvalue = [1, 3]"] ;
1152 -> 1154 ;
1155 [label="gini = 0.0\nsamples = 3\nvalue = [0, 3]"] ;
1154 -> 1155 ;
1156 [label="gini = 0.0\nsamples = 1\nvalue = [1, 0]"] ;
1154 -> 1156 ;
1157 [label="gini = 0.0\nsamples = 77\nvalue = [0, 77]"] ;
1151 -> 1157 ;
1158 [label="HOUSE <= 251714.5\ngini = 0.18\nsamples = 40\nvalue = [4, 36]"] ;
1150 -> 1158 ;
1159 [label="gini = 0.0\nsamples = 25\nvalue = [0, 25]"] ;
1158 -> 1159 ;
1160 [label="HOUSE <= 254565.5\ngini = 0.391\nsamples = 15\nvalue = [4, 11]"] ;
1158 -> 1160 ;
1161 [label="gini = 0.0\nsamples = 2\nvalue = [2, 0]"] ;
1160 -> 1161 ;
1162 [label="LEFTOVER <= 16.5\ngini = 0.26\nsamples = 13\nvalue = [2, 11]"] ;
1160 -> 1162 ;
1163 [label="gini = 0.0\nsamples = 9\nvalue = [0, 9]"] ;
1162 -> 1163 ;
1164 [label="COLLEGE <= 0.5\ngini = 0.5\nsamples = 4\nvalue = [2, 2]"] ;
1162 -> 1164 ;
1165 [label="gini = 0.0\nsamples = 2\nvalue = [2, 0]"] ;
1164 -> 1165 ;
1166 [label="gini = 0.0\nsamples = 2\nvalue = [0, 2]"] ;
1164 -> 1166 ;
1167 [label="HANDSET_PRICE <= 239.5\ngini = 0.375\nsamples = 8\nvalue = [2, 6]"] ;
1149 -> 1167 ;
1168 [label="gini = 0.0\nsamples = 5\nvalue = [0, 5]"] ;
1167 -> 1168 ;
1169 [label="REPORTED_SATISFACTION_very_sat <= 0.5\ngini = 0.444\nsamples = 3\nvalue = [2, 1]"] ;
1167 -> 1169 ;
1170 [label="gini = 0.0\nsamples = 2\nvalue = [2, 0]"] ;
1169 -> 1170 ;
1171 [label="gini = 0.0\nsamples = 1\nvalue = [0, 1]"] ;
1169 -> 1171 ;
1172 [label="REPORTED_USAGE_LEVEL_little <= 0.5\ngini = 0.5\nsamples = 2\nvalue = [1, 1]"] ;
1148 -> 1172 ;
1173 [label="gini = 0.0\nsamples = 1\nvalue = [1, 0]"] ;
1172 -> 1173 ;
1174 [label="gini = 0.0\nsamples = 1\nvalue = [0, 1]"] ;
1172 -> 1174 ;
1175 [label="HOUSE <= 197994.5\ngini = 0.375\nsamples = 12\nvalue = [3, 9]"] ;
1147 -> 1175 ;
1176 [label="gini = 0.0\nsamples = 3\nvalue = [3, 0]"] ;
1175 -> 1176 ;
1177 [label="gini = 0.0\nsamples = 9\nvalue = [0, 9]"] ;
1175 -> 1177 ;
1178 [label="gini = 0.0\nsamples = 2\nvalue = [2, 0]"] ;
1146 -> 1178 ;
1179 [label="COLLEGE <= 0.5\ngini = 0.467\nsamples = 183\nvalue = [68, 115]"] ;
1145 -> 1179 ;
1180 [label="OVER_15MINS_CALLS_PER_MONTH <= 26.5\ngini = 0.153\nsamples = 84\nvalue = [7, 77]"] ;
1179 -> 1180 ;
1181 [label="HOUSE <= 316191.5\ngini = 0.134\nsamples = 83\nvalue = [6, 77]"] ;
1180 -> 1181 ;
1182 [label="LEFTOVER <= 20.5\ngini = 0.48\nsamples = 5\nvalue = [2, 3]"] ;
1181 -> 1182 ;
1183 [label="gini = 0.0\nsamples = 3\nvalue = [0, 3]"] ;
1182 -> 1183 ;
1184 [label="gini = 0.0\nsamples = 2\nvalue = [2, 0]"] ;
1182 -> 1184 ;
1185 [label="LEFTOVER <= 8.5\ngini = 0.097\nsamples = 78\nvalue = [4, 74]"] ;
1181 -> 1185 ;
1186 [label="REPORTED_USAGE_LEVEL_very_little <= 0.5\ngini = 0.278\nsamples = 18\nvalue = [3, 15]"] ;
1185 -> 1186 ;
